tree
version=v4
num_class=1
num_tree_per_iteration=1
label_index=0
max_feature_idx=10
objective=binary sigmoid:1
feature_names=f_normal_angle f_residual_a f_residual_b f_joint_residual f_boundary_distance f_size_a f_size_b f_size_ratio f_slope_diff f_aspect_diff f_offset_diff
feature_infos=[0.00048394309572367592:1.5702578040434987] [0:0.056402240183423595] [0:0.056402240183423595] [0.00054142260553314138:0.20493719515986608] [0:0.049948079932772359] [15:4075] [15:3999] [0.0044560943643512452:1] [2.2255127758996629e-06:1.5553657861550529] [1.4620761742079047e-05:3.141588336084316] [9.7835023636213189e-08:0.73305471861250604]
tree_sizes=3287 3341 3353 3347 3340 3346 3354 3379 3350 3364 3369 3381 3355 3394 3369 3372 3375 3371 3371 3368 3353 3388 3371 3375 3383 3397 3380 3376

Tree=0
num_leaves=31
num_cat=0
split_feature=3 0 8 8 0 7 7 0 9 9 7 9 7 1 1 6 8 8 3 6 7 5 1 4 9 3 10 6 1 1
split_gain=2794.59 238.239 169.931 64.3272 52.4159 38.7062 40.7006 36.576 32.0397 28.2847 23.2341 22.6153 25.2472 20.9325 19.7903 19.0584 20.5259 42.9677 17.2934 15.7599 15.0329 14.0267 12.6088 7.80971 8.71459 5.96688 4.47729 3.88699 12.4943 10.1101
threshold=0.019863390430236352 0.48599678412732245 0.29887128224151649 0.38432569412805651 0.90127632358813825 0.056824646448459602 0.33604326881053653 0.38089041903596205 1.7092997367142961 1.6885845701689077 0.026881246655365679 0.41719600581159161 0.038891129657782887 0.0060339275204912132 0.0016970389920386117 534.00000000000011 0.1248579882491737 0.2100476232358747 0.0043092414386034237 401.50000000000006 0.056824646448459602 463.50000000000006 0.0037140371437787861 0.011506552099521325 1.3109309026489779 0.0051317346101475798 0.10527882169722486 23.500000000000004 0.0021004144656373526 9.9458062749095718e-34
decision_type=2 2 2 2 2 2 2 2 2 2 2 2 2 2 2 2 2 2 2 2 2 2 2 2 2 2 2 2 2 2
left_child=1 11 7 4 5 9 8 -2 13 23 -6 27 26 -7 -9 16 22 -18 -11 20 -5 -12 -14 -3 -25 -26 -13 28 -1 -29
right_child=2 3 -4 19 10 6 -8 14 -10 18 21 12 15 -15 -16 -17 17 -19 -20 -21 -22 -23 -24 24 25 -27 -28 29 -30 -31
leaf_value=-1.1524525159412478 -1.1775869806058206 -1.0202967656377349 -1.0950867636882933 -1.0665854795781322 -1.1489703072282522 -1.2776106650890113 -1.0675129717732892 -1.1934367077275974 -1.0950867636882933 -1.1105855205025785 -1.2770759542111889 -1.0470590649080183 -1.1133991769878644 -1.1524525159412478 -1.2927715908272901 -1.0263886669708542 -1.2419219464754641 -1.0675129717732892 -1.2233931765759705 -1.0288475143083673 -1.166249042095171 -1.1676171708995606 -1.0393152732806683 -1.0310380640487882 -1.0770825791143626 -1.1471639181362572 -1.0108496024569589 -1.2934962164000565 -1.0359861013934861 -1.0245079939406276
leaf_weight=2.4229005426168433 7.3707426339387885 8.1306041181087512 12.056603029370306 12.801273033022882 10.640354186296465 10.756153553724294 7.5610662847757331 5.1229742616415015 5.1671155840158454 11.20989201962948 10.405889213085173 16.64042241871357 10.436272174119951 4.8458010852336875 235.80099241435528 10.87481915950775 6.626072630286215 7.5610662847757339 4.8747509270906439 16.78660474717617 5.371197596192359 4.0721812397241584 12.772323191165922 6.5102732628583935 8.6849504709243757 4.6706689149141303 17.531274750828743 0.35026434063911338 46.447573691606522 130.2206567376852
leaf_count=9 30 15 35 32 39 59 19 22 15 35 57 37 33 18 1344 21 33 19 23 33 21 16 27 13 23 17 30 2 96 248
internal_value=-1.15126 -1.06733 -1.2784 -1.12197 -1.14283 -1.12124 -1.16684 -1.2873 -1.203 -1.09193 -1.20506 -1.03969 -1.06137 -1.23874 -1.29066 -1.08465 -1.10159 -1.14897 -1.14477 -1.06378 -1.09604 -1.24629 -1.07263 -1.06158 -1.07847 -1.10159 -1.02848 -1.02973 -1.04176 -1.02523
internal_weight=654.724 394.372 260.351 132.489 97.5297 72.4113 28.3301 248.295 20.7691 44.0811 25.1184 261.884 82.4423 15.602 240.924 48.2706 37.3957 14.1871 16.0846 34.9591 18.1725 14.4781 23.2086 27.9965 19.8659 13.3556 34.1717 179.441 48.8705 130.571
internal_count=2421 990 1431 435 349 237 111 1396 92 126 112 555 200 77 1366 133 112 52 58 86 53 73 60 68 53 40 67 355 105 250
is_linear=0
shrinkage=1


Tree=1
num_leaves=31
num_cat=0
split_feature=3 9 8 1 1 3 9 0 1 8 5 6 4 7 0 6 6 10 5 4 5 5 1 5 9 8 1 6 1 5
split_gain=2282.97 175.924 131.701 56.7416 42.1951 56.3058 36.2764 35.4045 33.7564 31.6342 24.0316 22.2997 26.9476 18.8658 45.4023 17.6569 16.4866 12.5777 12.5077 11.9543 11.8162 10.4333 9.64797 9.46225 7.83993 5.53774 4.20925 4.16775 6.02809 3.38911
threshold=0.021911116813262049 1.1701997459731339 0.31184838380108298 0.00010801101054608524 0.0071186347985226 0.0051836199748584401 3.1280761021005792 0.41600881124007599 0.0054748518824021455 0.39461318365362835 20.500000000000004 531.50000000000011 0.017944774364805419 0.046753552078304554 0.39296530010577096 30.500000000000004 339.00000000000006 0.083219649900374768 553.50000000000011 0.019900293786420428 870.00000000000011 44.000000000000007 0.0018116865099705246 332.50000000000006 0.027045806724998126 0.083045343109833428 0.00010801101054608524 24.500000000000004 0.00010801101054608524 47.500000000000007
decision_type=2 2 2 2 2 2 2 2 2 2 2 2 2 2 2 2 2 2 2 2 2 2 2 2 2 2 2 2 2 2
left_child=1 13 7 -3 5 6 11 18 9 10 -7 12 20 26 19 -14 21 -8 -2 24 23 -16 -9 -5 -15 -21 -1 -26 -29 -30
right_child=2 3 -4 4 -6 8 17 22 -10 -11 -12 -13 15 14 16 -17 -18 -19 -20 25 -22 -23 -24 -25 27 -27 -28 28 29 -31
leaf_value=-0.065793055800384609 -0.012530435908164661 0.18181921781883698 0.11827052575376465 0.13448418018099415 0.15703105777235987 0.052509733128627348 -0.019012458423566657 0.0095579630373017598 0.098889241928192567 0.11811165803812451 -0.055462138536579192 0.16176272909462389 0.08274668825283775 0.17437005372279246 0.074366863750411225 -0.032813989560195378 0.14218695577479942 0.079299726541555871 0.098204783586875732 0.18906847977690777 0.17551113165587931 -0.024612766187611899 -0.06372797882867777 0.051692582076337673 0.10813969943931663 0.15721451867763603 0.17452807014643457 -0.064457123315013673 0.13151887879775151 0.16365824825802755
leaf_weight=0.18242153525352378 6.5178150385618192 16.477240160107613 11.083529323339461 8.5124606043100375 16.787013277411461 7.2331987321376863 7.2831775397062284 4.5834593176841727 11.379148975014685 4.6057634800672522 17.923883870244026 18.66478955745697 9.161948621273039 16.222127497196198 7.2899327576160449 5.1711479723453513 5.7082792669534674 5.8797637820243835 4.1889099478721619 33.925142049789429 8.4385179132223112 4.1941268593072891 222.41463933885098 5.804338425397872 11.678934037685393 22.823224574327469 153.68491959571838 0.34744527935981651 19.735722824931145 14.036441996693609
leaf_count=1 32 29 30 22 36 28 35 21 35 12 99 38 30 28 25 26 13 20 14 52 15 21 1316 22 32 47 266 2 47 27
internal_value=0.0705105 0.139844 -0.050202 0.0945304 0.0831916 0.071929 0.0995613 -0.0580574 0.0256426 -0.00236164 -0.0244179 0.117188 0.0947552 0.162252 0.148681 0.0410543 0.0727384 0.0249027 0.0307937 0.159674 0.12858 0.0382182 -0.0622482 0.100919 0.1445 0.176257 0.174243 0.13392 0.142745 0.144877
internal_weight=681.939 433.151 248.788 143.322 126.845 110.058 68.9161 237.705 41.142 29.7628 25.1571 55.7532 37.0884 289.829 135.961 14.3331 17.1923 13.1629 10.7067 118.769 22.7553 11.4841 226.998 14.3168 62.0207 56.7484 153.867 45.7985 34.1196 33.7722
internal_count=2421 1008 1413 447 418 382 208 1383 174 139 127 153 115 561 294 56 59 55 46 235 59 46 1337 44 136 99 267 108 76 74
is_linear=0
shrinkage=0.05


Tree=2
num_leaves=31
num_cat=0
split_feature=3 9 8 5 3 1 2 3 4 7 9 0 7 0 1 4 0 1 4 0 7 7 1 9 1 10 8 4 10 1
split_gain=1916.21 172.415 58.3643 56.4862 40.9591 53.8007 35.0033 37.3173 18.2101 18.0047 16.1578 14.9847 13.9784 32.346 13.5598 15.5945 11.513 11.6052 9.32755 9.25418 8.59885 11.099 7.71959 6.05999 5.57735 4.06262 9.51874 6.12716 3.9966 3.34582
threshold=0.027361734657915911 1.1701997459731339 0.39461318365362835 870.00000000000011 0.0044985373324409562 0.0054748518824021455 0.0066574887009722677 0.0051836199748584401 0.016055761954170761 0.054653679653679656 1.3582825057367924 0.68787540987097162 0.046753552078304554 0.39296530010577096 0.004498448193213535 0.020515442125296161 0.64741325094368418 0.0049079698664344249 0.019900293786420428 0.82629239951679267 0.3399588477366256 0.082685677555075096 0.0023611172009365866 0.027045806724998126 0.0034286853125455124 0.032343241151029954 0.080769617260626231 0.014568788352524365 0.030891843820484582 0.00010801101054608524
decision_type=2 2 2 2 2 2 2 2 2 2 2 2 2 2 2 2 2 2 2 2 2 2 2 2 2 2 2 2 2 2
left_child=1 12 10 4 14 6 7 19 -9 16 -2 -7 29 18 15 22 -5 -18 23 -6 21 -15 -3 -14 -24 26 27 -25 -20 -1
right_child=2 3 -4 9 5 11 -8 8 -10 -11 -12 -13 13 20 -16 -17 17 -19 28 -21 -22 -23 24 25 -26 -27 -28 -29 -30 -31
leaf_value=-0.064787427861516797 0.021701519780971092 0.14119392585613336 0.094941797871533784 0.13641010083938576 0.098731464654314871 0.13112458360597945 0.11524366005342589 0.026417269522507621 -0.064444617186655576 0.16015101439091484 -0.062163858087373958 0.051660132430437301 0.15313864490224338 0.098086974098739274 0.15768489483597803 0.029306696416019996 0.036956008075641096 0.1243919152035276 0.16360769904078584 0.015575775159012872 0.11984249252614741 0.0062154713451255655 0.056554072773153288 0.080321401098999268 0.11890177743065 0.097543911359187094 0.16326656778199855 0.13429729662885706 0.13676189377383852 0.15323985383998451
leaf_weight=0.17614941298961539 5.9026662260293952 9.7528532743453997 6.2601342052221289 11.615474179387094 7.1641242057085019 14.478100433945658 6.5604301691055289 7.4320587664842632 21.369885191321373 20.798207312822342 212.63856036961079 10.051147162914274 17.510443657636642 6.1528554111719149 8.2541390508413297 8.8669596612453443 9.7519481182098371 6.2127437293529502 42.177400484681129 6.277390792965889 6.3384318053722373 7.0591714680194855 8.2284770607948285 10.210778549313547 6.3589797466993323 15.339865088462828 12.451134726405142 10.838943868875502 20.651933789253235 165.9297096580267
leaf_count=1 26 20 17 24 20 31 18 32 124 35 1299 36 28 17 14 35 36 15 61 27 15 31 28 28 15 40 20 21 41 266
internal_value=0.0648033 0.121421 -0.0555868 0.0797094 0.0606117 0.0381545 0.00779258 -0.00889462 -0.0409986 0.125025 -0.0598987 0.0985631 0.143039 0.131905 0.100332 0.0860761 0.0985373 0.0709822 0.140977 0.0598965 0.0719679 0.0490001 0.106757 0.127902 0.0837328 0.118855 0.128613 0.108115 0.154784 0.153009
internal_weight=702.811 478.01 224.801 163.173 114.795 73.3331 48.8039 42.2435 28.8019 48.3784 218.541 24.5292 314.837 148.731 41.4614 33.2073 27.5802 15.9647 129.181 13.4415 19.5505 13.212 24.3403 66.3512 14.5875 48.8407 33.5009 21.0497 62.8293 166.106
internal_count=2421 1079 1342 510 400 288 221 203 156 110 1325 67 569 302 112 98 75 51 239 47 63 48 63 137 43 109 69 49 102 267
is_linear=0
shrinkage=0.05


Tree=3
num_leaves=31
num_cat=0
split_feature=3 9 1 4 1 6 7 4 9 2 7 9 9 7 1 7 0 6 7 9 1 4 3 9 9 0 1 1 10 1
split_gain=1641.95 137.373 46.1729 42.5651 38.1162 26.9792 25.4411 28.0284 23.6757 24.8894 18.129 45.4074 34.3175 14.3166 14.0597 11.0185 25.7625 10.1204 14.416 9.92569 7.93701 7.27129 6.74357 8.21148 4.81803 4.43408 7.71994 3.49611 5.70367 4.28693
threshold=0.027361734657915911 1.1701997459731339 0.00010801101054608524 0.020727403872378702 0.0079032723532011309 668.50000000000011 0.1537907732664234 0.028121108466527423 1.5390961518071484 0.0068731155572449168 0.055874137364442987 1.7784050914922032 3.1327007201937751 0.10987578277384254 0.001865774488742892 0.046753552078304554 0.39296530010577096 339.00000000000006 0.3399588477366256 3.137729115477534 0.0050328758990440042 0.019900293786420428 0.0028543625124922705 1.6885845701689077 0.027045806724998126 0.72629103991845267 0.0034410597550733166 0.0033010107148198366 0.011236284476630541 0.003684466054257722
decision_type=2 2 2 2 2 2 2 2 2 2 2 2 2 2 2 2 2 2 2 2 2 2 2 2 2 2 2 2 2 2
left_child=1 15 -3 10 5 8 7 -2 -5 25 12 13 20 -12 -8 -1 21 18 -18 -14 22 24 -4 -24 -17 26 -10 -26 -29 -30
right_child=6 2 3 4 -6 -7 14 -9 9 -11 11 -13 19 -15 -16 16 17 -19 -20 -21 -22 -23 23 -25 27 -27 -28 28 29 -31
leaf_value=0.1371241279989483 0.082568979949443275 0.14543253260175421 0.14169397062173464 0.060773936014389629 0.13049621973278888 0.080238693928634544 0.013503460546668884 -0.062376500051715682 -0.0645929538776715 0.082803651008940216 -0.066015631584795231 0.11659177658087963 0.064808082956880828 0.032331816985171832 -0.061422060078963149 0.13725450630334651 -0.0020216652890649167 0.11258504841325301 0.10776157855180797 -0.031066211484633635 0.15441267699672587 0.13850562503247346 0.12681189515311839 0.063943884624184585 0.082587040153896785 -0.064974840304560522 0.015333608995593022 0.057182592671989552 0.15002056577303602 0.11052271507144316
leaf_weight=175.8035873323679 6.8692534863948804 19.525265291333199 10.362906739115717 10.549674630165098 8.4435324370861036 12.539611756801603 6.4661167860031119 6.482920303940773 5.8464225977659279 4.4533082544803611 5.8103393763303819 15.552846163511274 6.3794513940811139 10.190450385212896 197.55195751786232 18.53099612891674 7.9733622521162051 7.4208444505929938 4.784733921289444 4.6800135523080826 13.623984858393667 66.594973862171173 9.48603703081608 11.479527026414869 11.043458044528959 13.497375786304472 6.2517406791448593 3.9356338530778876 9.2097162753343564 27.037709504365921
leaf_count=267 23 30 17 35 16 37 29 41 34 12 32 36 20 39 1249 28 36 16 11 22 22 102 19 35 28 77 27 11 14 56
internal_value=0.06009 0.109881 0.0731305 0.0636652 0.0318137 0.0161333 -0.0546714 0.0121932 -0.00366689 -0.026291 0.0860652 0.0557538 0.103141 -0.00338092 -0.0590474 0.128533 0.118885 0.0661565 0.0391509 0.0242371 0.122553 0.126688 0.108698 0.092389 0.115407 -0.0452722 -0.0232908 0.107503 0.114351 0.120558
internal_weight=718.378 501.008 168.672 149.147 61.5817 53.1381 217.37 13.3522 40.5985 30.0488 87.5656 31.5536 56.0119 16.0008 204.018 332.335 156.531 20.1789 12.7581 11.0595 44.9525 136.352 31.3285 20.9656 69.7575 25.5955 12.0982 51.2265 40.1831 36.2474
internal_count=2421 1079 510 480 238 222 1342 64 185 150 242 107 135 71 1278 569 302 63 47 42 93 239 71 54 137 138 61 109 81 70
is_linear=0
shrinkage=0.05


Tree=4
num_leaves=31
num_cat=0
split_feature=3 9 8 8 5 4 1 0 2 5 9 7 8 7 7 8 9 7 8 9 8 5 1 4 4 2 7 10 7 7
split_gain=1425.85 113.377 52.4809 42.8914 33.1063 22.4734 22.2497 27.9802 19.7802 20.146 15.1015 11.4883 9.98156 17.3166 32.2011 25.8707 12.6903 9.13646 16.7806 17.8649 9.7436 7.94065 7.64091 7.20362 5.15927 4.75458 3.95986 3.4633 3.25746 2.81088
threshold=0.027361734657915911 1.1701997459731339 0.39461318365362835 0.0092573299058397677 1420.0000000000002 0.020727403872378702 0.0079032723532011309 0.73191544055092039 0.0043082661088079252 713.50000000000011 1.3582825057367924 0.026306543697848048 0.39461318365362835 0.055874137364442987 0.10987578277384254 0.13547891964866024 1.7092997367142961 0.038891129657782887 0.12295518804655924 0.45238633120355703 0.31184838380108298 73.500000000000014 0.004498448193213535 0.037344040324573786 0.019900293786420428 0.0019343669124375553 0.026306543697848048 0.033768635166690583 0.054653679653679656 0.1537907732664234
decision_type=2 2 2 2 2 2 2 2 2 2 2 2 2 2 2 2 2 2 2 2 2 2 2 2 2 2 2 2 2 2
left_child=1 17 10 -3 5 12 7 8 9 22 -2 -9 13 15 -15 26 -16 -1 24 27 21 -21 -7 -13 25 -19 -5 -20 -6 -27
right_child=2 3 -4 4 28 6 -8 11 -10 -11 -12 23 -14 14 16 -17 -18 18 19 20 -22 -23 -24 -25 -26 29 -28 -29 -30 -31
leaf_value=0.12574437461953061 0.019985118987810579 -0.044458409475711232 0.085521296668062449 0.086566928169418217 0.10182537522666757 -0.043063491037782481 0.11546464063282527 0.037993649825833656 0.10945867179411291 0.11203667047345221 -0.060638581718859753 -0.064672345178309526 0.11786674456692106 -0.044762763373135062 0.035185338346122856 0.024850703864984308 0.12429457808159844 0.026979279234335376 0.13256881677984059 0.059143986274936701 0.099494493250760416 -0.012066879636315248 0.039456304900463396 0.013410320884157735 0.13089054978678721 0.10691516738582092 0.12688156792487659 0.098534856085175787 0.13535295567644584 0.13058146108389987
leaf_weight=162.37053464353085 5.9840014278888694 8.1447939276695234 6.5499317348003379 8.5253157317638415 12.671331614255907 7.217941835522657 8.0839435011148435 6.3981719315052059 11.36849671602249 4.6332683116197577 197.59249390661716 10.3731252849102 14.198815509676932 7.9049020409584072 8.201260179281233 10.729999616742132 7.791141837835311 1.6604393273591984 12.993229106068613 11.700452923774725 8.9120429605245572 5.8831218332052222 4.5885638445615768 4.1297813951969138 56.304406031966209 52.19422921538353 21.332435712218285 17.600083097815514 16.916020512580872 16.516805708408356
leaf_count=234 26 45 17 20 28 37 15 23 27 10 1299 60 26 41 30 38 15 5 18 34 20 25 15 17 77 96 39 35 24 25
internal_value=0.0561117 0.100576 -0.0537866 0.0675515 0.0730784 0.0626139 0.038644 0.0258947 0.0587485 0.0236812 -0.0582687 -0.0178164 0.0799152 0.0715587 0.0377915 0.0914402 0.0785974 0.117102 0.109467 0.0869597 0.0569045 0.0353182 -0.0109924 -0.0424379 0.11961 0.110584 0.11537 0.112989 0.120994 0.112604
internal_weight=729.471 519.345 210.126 173.209 165.065 135.477 56.7933 48.7093 27.8083 16.4398 203.576 20.9011 78.6839 64.4851 23.8973 40.5878 15.9924 346.135 183.765 57.0889 26.4956 17.5836 11.8065 14.5029 126.676 70.3715 29.8578 30.5933 29.5874 68.711
internal_count=2421 1079 1342 510 465 413 204 189 89 62 1325 100 209 183 86 97 45 569 335 132 79 59 52 77 203 126 59 53 52 121
is_linear=0
shrinkage=0.05


Tree=5
num_leaves=31
num_cat=0
split_feature=3 9 8 8 8 3 2 5 9 9 1 8 3 10 7 8 6 10 6 10 7 8 9 1 5 9 2 7 1 1
split_gain=1260.74 93.4125 39.9161 39.1494 30.3291 35.2883 26.8461 29.1855 16.52 15.551 15.276 18.2799 14.7616 12.806 10.0152 9.77246 6.98341 6.6904 5.81711 9.54869 11.768 11.3399 27.9001 6.21918 5.67317 5.05534 3.65542 3.39116 4.68771 2.84125
threshold=0.027361734657915911 1.1701997459731339 0.0092573299058397677 0.39461318365362835 0.31184838380108298 0.0044985373324409562 0.0066574887009722677 406.50000000000006 2.5639303541892766 1.4042687679290606 0.0023327225438443387 0.097759169721675657 0.0051836199748584401 0.093714979043622901 0.071199724224635275 0.079685363170520426 115.50000000000001 0.099711418077980243 565.50000000000011 0.027346027418013123 0.051320783949182748 0.12726542840441835 0.6183182263096062 0.00010801101054608524 415.00000000000006 0.74644266444868113 0.0014715631768574078 0.097974566711106562 0.0022495463949141286 0.0042024766089707299
decision_type=2 2 2 2 2 2 2 2 2 2 2 2 2 2 2 2 2 2 2 2 2 2 2 2 2 2 2 2 2 2
left_child=1 18 -3 9 5 10 7 12 17 -2 -4 24 15 -14 16 -7 -6 -9 19 26 -21 25 -23 -20 -12 29 -1 28 -28 -22
right_child=3 2 4 -5 14 6 -8 8 -10 -11 11 -13 13 -15 -16 -17 -18 -19 23 20 21 22 -24 -25 -26 -27 27 -29 -30 -31
leaf_value=-0.0820300099943157 0.023988971451865265 -0.043989032986930299 0.1253751267805116 0.074339831654960997 0.0449228491113806 0.069766932013702307 0.092010311279790327 0.12070171784809952 -0.002105062810328438 -0.059902577491836168 0.062751702299099044 0.0073272002096613741 0.014850049016611622 -0.064709340525073322 0.12678712559820712 -0.026230865492779587 0.10371677277908803 0.05936249325136516 -0.073376900550709251 0.10972473896535005 0.06699535989349012 0.08819521816215313 -0.025575504386265515 0.11940163385286227 0.11236167300269161 0.12533507227146809 0.068494261360731432 0.12448225372139154 0.11152290644017303 0.10302574381309471
leaf_weight=0.23800252377986808 5.6932199299335471 8.0746995955705625 18.629329398274422 5.809370517730712 8.5763065516948718 7.2601952701807004 16.423619702458382 7.7568868249654832 7.6337744295597068 185.9712773412466 9.9337917566299456 8.8588763326406461 7.9995005279779461 13.754727631807325 24.273940518498421 4.1759126633405685 12.28562009334564 10.413243815302847 0.42003414034843345 60.833466336131096 11.754357039928438 17.448099538683895 7.7966540455818167 105.31270448863506 13.72445400059223 10.959566995501516 6.8818090558052054 49.723862305283546 78.902002915740013 10.236621022224424
leaf_count=1 24 45 31 15 25 21 37 13 32 1271 27 35 31 80 38 20 23 32 2 94 27 35 35 144 27 17 15 65 119 17
internal_value=0.0545793 0.0940952 0.064654 -0.0535348 0.0697633 0.057214 0.0354719 0.019732 0.0596172 -0.0574107 0.0892736 0.0685908 -0.0112769 -0.0354536 0.104952 0.0347132 0.0795467 0.0855484 0.108777 0.104685 0.0943479 0.078274 0.053058 0.118636 0.0915311 0.097593 0.113749 0.114093 0.108071 0.0837672
internal_weight=737.756 540.282 179.775 197.474 171.7 126.564 75.4179 58.9942 25.8039 191.664 51.1465 32.5171 33.1903 21.7542 45.1359 11.4361 20.8619 18.1701 360.507 254.774 119.029 58.1953 25.2448 105.733 23.6582 32.9505 135.746 135.508 85.7838 21.991
internal_count=2398 1088 517 1310 472 386 266 229 77 1295 120 89 152 111 86 41 48 45 571 425 225 131 70 146 54 61 200 199 134 44
is_linear=0
shrinkage=0.05


Tree=6
num_leaves=31
num_cat=0
split_feature=9 8 9 6 5 4 6 0 0 9 7 7 2 6 6 5 5 8 10 10 1 4 7 10 5 0 10 10 6 10
split_gain=748.909 258.758 118.397 48.2083 40.3509 36.8664 31.163 21.1908 18.6313 18.1255 32.7512 14.9356 15.605 14.8867 13.3858 14.6026 10.7229 10.5753 10.3457 11.3196 9.76061 8.8189 8.26825 6.7721 6.76304 5.91396 4.41282 4.37753 3.28512 4.57346
threshold=1.4795913703613743 0.015405038577185755 1.6085088785545965 565.50000000000011 1324.0000000000002 0.014069207824739907 138.00000000000003 0.6635638728730836 0.75199982996611869 0.67580322164546258 0.056824646448459602 0.13777285669092063 0.0033121203475904677 439.50000000000006 26.500000000000004 22.500000000000004 1288.5000000000002 0.066694639145886372 0.13985243693937144 0.055476411157898482 0.0035595452494660714 0.019184502869702202 0.02196735726847682 0.2185490595355041 3027.0000000000005 0.38089041903596205 0.10671066703331532 0.085769967126363547 518.00000000000011 0.034278162884244116
decision_type=2 2 2 2 2 2 2 2 2 2 2 2 2 2 2 2 2 2 2 2 2 2 2 2 2 2 2 2 2 2
left_child=9 11 6 4 5 27 7 -3 18 28 26 12 -2 14 25 -16 -8 -5 19 -7 -17 -10 -19 -9 -6 -12 -11 -4 29 -1
right_child=1 2 3 17 24 8 16 23 21 10 13 -13 -14 -15 15 20 -18 22 -20 -21 -22 -23 -24 -25 -26 -27 -28 -29 -30 -31
leaf_value=0.10473484829158336 0.064218921454287453 0.087787883284946036 0.10091953697648764 0.050660349570524559 0.068265510836648224 0.041537449884822358 -0.056770113908926625 -0.063350776931321198 0.013972798361063597 0.085799697946967651 0.098531269535446303 -0.060293802513734389 -0.065790019326800106 0.097997970990765862 0.059487758868295271 0.02215921343452925 0.042735774555676696 0.05741247359528924 0.076606032333651139 -0.065767927776878052 -0.067217256084333987 -0.055009652313038997 0.11874770786237057 0.027897014200323048 0.12294385299511101 0.038919561006277886 0.1126631233384997 0.050052802629356352 0.11111023286964079 0.088924256358886067
leaf_weight=141.2225596755743 5.087436228990553 8.3257929384708422 8.7476264983415621 9.6037454009056074 13.021519869565966 5.9553216993808764 38.149315297603607 4.8332448750734311 6.1169613003730801 24.363847091794014 7.5950993597507503 131.27062697708607 4.2249049246311188 11.534606635570524 7.7040840387344387 5.4275677502155286 2.914247438311576 6.5383334904909125 6.9044100642204276 4.1846346408128738 6.9872249960899353 19.100169703364372 34.418997943401337 3.5101121813058853 9.9968958944082242 9.2007765024900419 41.035903647542 8.1892619132995588 88.46088595688343 67.649641573429108
leaf_count=204 18 20 19 31 33 20 260 31 24 45 13 930 24 21 22 20 11 19 20 24 38 116 55 14 13 30 60 24 118 121
internal_value=0.0514713 -0.00449721 0.0334735 0.0594649 0.0358385 0.0139962 -0.0263033 0.0313535 -0.0109828 0.0965384 0.0795734 -0.0559531 0.00523532 0.0484159 0.0329232 0.00541319 -0.0497083 0.0978834 0.0293982 -0.00274615 -0.0281432 -0.0382765 0.108956 -0.0249622 0.0920123 0.065876 0.102655 0.0763246 0.103034 0.0996141
internal_weight=742.276 331.094 190.511 132.778 82.2168 59.1984 57.7327 16.6691 42.2615 411.182 113.849 140.583 9.31234 48.4494 36.9148 20.1189 41.0636 50.5611 17.0444 10.14 12.4148 25.2171 40.9573 8.34336 23.0184 16.7959 65.3998 16.9369 297.333 208.872
internal_count=2398 1706 734 398 293 247 336 65 204 692 249 972 42 144 123 80 271 105 64 44 58 140 74 45 46 43 105 43 443 325
is_linear=0
shrinkage=0.05


Tree=7
num_leaves=31
num_cat=0
split_feature=3 9 8 8 3 8 2 5 9 3 9 1 8 10 7 3 9 1 1 6 10 7 8 9 1 9 2 7 1 1
split_gain=1001.83 71.287 33.4226 24.9124 27.9405 23.7552 22.2147 23.7734 14.4974 12.9414 12.391 11.8957 14.6968 11.2944 8.98365 8.78889 6.77261 6.14743 5.04969 4.61187 7.6441 9.82538 8.59898 22.2177 5.3293 3.67814 3.15835 2.95532 4.0158 2.45481
threshold=0.02784269995352261 1.1701997459731339 0.0092573299058397677 0.31184838380108298 0.0044985373324409562 0.39461318365362835 0.0066574887009722677 406.50000000000006 1.4042687679290606 0.0051836199748584401 2.5639303541892766 0.0023327225438443387 0.097759169721675657 0.093714979043622901 0.071199724224635275 0.0049686005177238483 1.5507015818558243 0.0047013310428211993 0.0032216601180267809 565.50000000000011 0.027346027418013123 0.051320783949182748 0.12726542840441835 0.6183182263096062 0.00010801101054608524 0.74644266444868113 0.0014715631768574078 0.097974566711106562 0.0022495463949141286 0.001865774488742892
decision_type=2 2 2 2 2 2 2 2 2 2 2 2 2 2 2 2 2 2 2 2 2 2 2 2 2 2 2 2 2 2
left_child=1 19 -3 4 11 8 7 9 -2 15 16 -4 18 -11 17 -6 -9 -5 -13 20 26 -22 25 -24 -21 -23 -1 28 -28 -10
right_child=5 2 3 14 6 -7 -8 10 29 13 -12 12 -14 -15 -16 -17 -18 -19 -20 24 21 22 23 -25 -26 -27 27 -29 -30 -31
leaf_value=-0.082765566335718577 0.022255608225596871 -0.042840835014734104 0.10846863172667094 0.047271266992349029 -0.012927528420003283 0.05081207949769339 0.080743366834227101 0.10701004621711657 -0.020526231572201289 0.010967702716885384 -0.0026335818123145458 0.053231190393200602 0.0048095084686950226 -0.063472155211714384 0.11154539092024288 0.073713597396096384 0.046994116002380362 0.10201126589069254 0.098846019653455755 -0.073942727089654589 0.095545333404219113 0.072002949952011827 0.07578494262205665 -0.025305015748419153 0.10369748893745417 0.10645977942198373 0.057584155514811379 0.10860264628884547 0.096703521808872664 -0.059637908002876862
leaf_weight=0.23915986716747184 5.7139808386564246 8.0855793058872205 19.674358084797859 13.473007768392565 5.8652578592300397 5.3530887663364402 17.148729920387268 8.2125931978225761 4.1102491766214362 8.2546278983354586 7.6376880109310141 10.569489806890489 8.9936373978853208 13.314712598919867 26.290340751409531 5.8428723067045212 10.992667540907858 8.2814939320087415 14.243572384119032 0.42384481430053611 63.168105944991112 22.838547825813293 18.205417782068256 7.7486861795186988 109.4280474036932 11.719046533107756 7.1306918859481803 51.677885189652443 82.024808272719383 167.57771681249142
leaf_count=1 23 48 31 35 25 14 37 14 24 32 32 29 35 82 39 16 33 13 25 2 94 44 35 35 144 18 15 65 119 1239
internal_value=0.0487198 0.0818159 0.0565921 0.0610887 0.0497751 -0.0529626 0.0305458 0.0162275 -0.056094 -0.0120112 0.0512353 0.0775574 0.0595681 -0.0349839 0.0918779 0.0303102 0.0726583 0.0681097 0.0794157 0.0943994 0.0908258 0.0817521 0.0673534 0.0456042 0.103012 0.0836878 0.0987808 0.0990891 0.0935747 -0.0587016
internal_weight=744.24 561.485 186.881 178.795 130.75 182.755 77.2691 60.1204 177.402 33.2775 26.8429 53.4811 33.8067 21.5693 48.0448 11.7081 19.2053 21.7545 24.8131 374.604 264.752 123.68 60.5117 25.9541 109.852 34.5576 141.073 140.833 89.1555 171.688
internal_count=2398 1098 526 478 391 1300 271 234 1286 155 79 120 89 114 87 41 47 48 54 572 426 226 132 70 146 62 200 199 134 1263
is_linear=0
shrinkage=0.05


Tree=8
num_leaves=31
num_cat=0
split_feature=3 9 8 6 5 8 0 8 7 8 8 7 1 4 3 2 5 3 2 9 1 5 6 9 6 5 8 7 2 0
split_gain=897.106 63.905 29.6589 23.9257 28.3552 22.3363 20.2608 17.462 14.2635 12.0454 17.8742 12.0919 20.6998 12.3045 10.3974 9.43832 8.072 9.66305 11.1992 5.3916 4.50143 4.41703 4.20976 6.81163 5.96494 5.63577 16.0332 7.438 5.53878 5.29255
threshold=0.02784269995352261 1.1701997459731339 0.0092573299058397677 668.50000000000011 1324.0000000000002 0.39461318365362835 0.89282818156105115 0.12642226647732965 0.094758243164745168 0.10076409201641857 0.28845544067290824 0.055874137364442987 0.0054748518824021455 0.021637635964045398 0.0053230445251671492 0.0049055788667805959 345.00000000000006 0.0047511957591242415 0.0058486168097654318 3.0925906148869036 0.0061179095158672798 3210.5000000000005 565.50000000000011 0.29467222150321853 16.500000000000004 457.50000000000006 0.12726542840441835 0.076326333262501128 0.0038484282234608736 0.30959944489233487
decision_type=2 2 2 2 2 2 2 2 2 2 2 2 2 2 2 2 2 2 2 2 2 2 2 2 2 2 2 2 2 2
left_child=1 22 -3 4 6 8 9 -8 -2 11 19 13 14 -4 -13 -9 17 -5 -19 20 -11 -6 23 -1 -25 26 29 -28 -27 -26
right_child=5 2 3 16 21 -7 7 15 -10 10 -12 12 -14 -15 -16 -17 -18 18 -20 -21 -22 -23 -24 24 25 28 27 -29 -30 -31
leaf_value=0.091429498224185793 0.019234162795513609 -0.041748500127360588 0.10173339096857908 0.09658662567792925 0.07290390110926924 0.047543406731017764 -0.066286578337913418 -0.008619696012913158 -0.058236376918645853 -0.066314065417371795 0.061756972308259134 0.031333910547715914 0.10754849557269067 0.035518161735690938 -0.062757172742350181 0.075199119241048828 0.11040809816171951 0.0046717239672203386 0.094151966905391668 0.024786244838941277 0.001119274927385799 0.11199044636543316 0.096969243596734034 0.10513586392938601 0.060755745136947682 0.054392741429756454 0.058572348615466875 -0.0074578552810584155 0.09759111343323533 0.10246565002384345
leaf_weight=169.8492811024189 6.1640258580446234 7.8873650580644599 20.36739303171635 16.156288877129558 18.614575639367107 5.4329087436199179 8.3417021930217761 8.336738169193266 164.54105311632156 6.0043176710605639 13.239396110177038 6.6687488704919833 5.4496961981058112 10.70272935926914 5.2456111311912537 5.6244015693664542 20.600529700517654 8.748762980103491 5.8250573426485053 5.0143706351518622 4.2100783884525299 11.816096425056456 110.83333577215672 13.941301867365835 16.06982479989529 10.522144213318823 7.3848841190338161 10.094958767294882 25.170934543013573 14.439257994294165
leaf_count=243 32 48 33 27 39 14 47 36 1254 34 32 23 9 33 34 14 27 35 11 16 14 14 146 18 32 21 18 39 34 21
internal_value=0.0463056 0.0769171 0.0531627 0.0572994 0.0458594 -0.0522625 0.0329081 -0.00905055 -0.055439 0.0450767 0.0192655 0.0602477 0.0268293 0.0789242 -0.0100922 0.0251477 0.0861914 0.0699572 0.0404364 -0.0176752 -0.03852 0.088081 0.0887755 0.0853803 0.0748555 0.0698109 0.0586203 0.0204386 0.0848564 0.0804961
internal_weight=743.298 567.16 188.854 180.966 129.636 176.138 99.2052 22.3028 170.705 76.9023 28.4682 48.4342 17.3641 31.0701 11.9144 13.9611 51.3306 30.7301 14.5738 15.2288 10.2144 30.4307 378.306 267.473 97.6233 83.682 47.9889 17.4798 35.6931 30.5091
internal_count=2398 1098 526 478 378 1300 325 97 1286 228 96 132 66 66 57 50 100 73 46 64 48 53 572 426 183 165 110 57 55 53
is_linear=0
shrinkage=0.05


Tree=9
num_leaves=31
num_cat=0
split_feature=3 9 8 9 6 5 0 8 8 8 8 7 1 10 2 5 6 10 9 1 5 2 3 9 7 8 1 1 1 2
split_gain=807.282 57.6902 26.4589 23.5144 20.917 24.978 18.0223 16.2171 12.6042 10.5805 15.8779 10.4615 18.1444 10.9851 8.27467 7.24061 9.09365 11.983 4.95539 4.2973 4.0819 3.9952 5.60621 3.95519 6.67036 8.33005 3.52886 4.047 2.57766 2.52393
threshold=0.02784269995352261 1.1701997459731339 0.0092573299058397677 1.4042687679290606 668.50000000000011 1324.0000000000002 0.89282818156105115 0.12642226647732965 0.46575848902034567 0.10076409201641857 0.28845544067290824 0.055874137364442987 0.0054748518824021455 0.14455993454156493 0.0049055788667805959 345.00000000000006 859.00000000000011 0.19540359990239811 3.0925906148869036 0.0061179095158672798 3027.0000000000005 0.0037140371437787861 0.0032164026085968298 0.67580322164546258 0.056824646448459602 0.14709888160124768 0.0028225371756310492 0.0024943144219603465 0.001865774488742892 0.0048231227936126513
decision_type=2 2 2 2 2 2 2 2 2 2 2 2 2 2 2 2 2 2 2 2 2 2 2 2 2 2 2 2 2 2
left_child=1 23 -3 -2 5 6 9 -8 28 11 18 21 13 -13 -9 16 -6 -18 19 -11 -7 22 -4 26 29 -26 27 -1 -5 -25
right_child=3 2 4 8 15 20 7 14 -10 10 -12 12 -14 -15 -16 -17 17 -19 -20 -21 -22 -23 -24 24 25 -27 -28 -29 -30 -31
leaf_value=0.082909911982819912 0.029755069950321705 -0.040680389652644457 0.088419911968855944 -0.017521909038936245 0.094854730741963753 0.066174156882684493 -0.065270480329305769 -0.0082206280920631963 0.054874553096859402 -0.065299372922577661 0.057750887002218157 0.032299787284840391 0.09970245565263558 -0.065098201979821677 0.069794466383568385 0.10358717504816317 -0.007119669983263144 0.077846824899278716 0.023364362121336003 0.0010629857824535247 0.10275996754411328 0.093211516512877401 0.031215625713489282 0.077121132846335649 0.076346333463832794 0.022716782681515016 0.089256246755514607 0.053118743624692079 -0.058611058760186976 0.10144903225581309
leaf_weight=49.651193231344223 8.4450520724058133 7.6946802586317053 7.9230457097292009 3.9133638292551032 14.296091869473459 16.955950140953068 8.0552459508180636 8.3051975071430189 2.5306330174207678 5.7979699373245257 13.444337472319601 6.7117976844310778 5.5809702426195136 5.0907004103064537 5.7534166872501364 20.851943224668503 7.3816283643245724 9.4774472862482053 5.0525361746549597 4.2113347500562668 13.852324992418287 14.342139348387716 9.3226986080408079 30.478057786822319 18.714183539152149 11.81012277305126 238.48478300869465 14.797234013676642 154.85777769982815 16.396888196468353
leaf_count=74 30 48 14 24 25 36 47 36 6 34 32 26 9 31 14 27 28 20 16 14 17 24 28 48 35 38 329 28 1240 20
internal_value=0.0441472 0.0726319 0.050141 -0.0515756 0.0539722 0.0432794 0.0311082 -0.00870436 -0.0558337 0.0424716 0.0182537 0.0565688 0.0254167 -0.0097103 0.0237067 0.0807828 0.06552 0.0406448 -0.0170018 -0.0373779 0.0826242 0.0737125 0.0574964 0.0838736 0.0737862 0.0555966 0.0864509 0.0760699 -0.0575983 0.085631
internal_weight=740.181 570.434 190.101 169.747 182.407 130.4 99.5914 22.1139 161.302 77.4775 28.5062 48.9714 17.3835 11.8025 14.0586 52.0071 31.1552 16.8591 15.0618 10.0093 30.8083 31.5879 17.2457 380.332 77.3993 30.5243 302.933 64.4484 158.771 46.8749
internal_count=2398 1098 526 1300 478 378 325 97 1270 228 96 132 66 57 50 100 73 48 64 48 53 66 42 572 141 73 431 102 1264 68
is_linear=0
shrinkage=0.05


Tree=10
num_leaves=31
num_cat=0
split_feature=3 0 8 8 3 0 8 5 2 7 8 3 0 0 10 3 6 6 6 6 5 4 8 7 9 10 8 7 10 2
split_gain=736.153 42.3651 28.2682 25.3595 35.3679 20.3167 18.596 16.3682 19.6424 14.9046 12.681 11.2486 10.875 10.6411 7.41937 5.19939 7.36274 15.8473 6.40922 4.48789 5.10713 7.94673 6.63151 6.7597 9.464 6.82587 4.35362 3.87842 3.29202 3.84148
threshold=0.02784269995352261 0.45449271852485779 0.39461318365362835 0.31184838380108298 0.0051836199748584401 0.90127632358813825 0.017748291441400058 439.50000000000006 0.0050957918830961168 0.097974566711106562 0.077646080608162707 0.010293401464201107 1.1739803049945778 0.73191544055092039 0.050823876066082262 0.0026870741734549455 668.50000000000011 29.500000000000004 407.50000000000006 762.50000000000011 644.50000000000011 0.020278536135955979 0.1661059569236599 0.10402666631040335 0.45238633120355703 0.020289175610633741 0.039796651786089078 0.037073206018518524 0.0070846483809020597 0.0046473863223199414
decision_type=2 2 2 2 2 2 2 2 2 2 2 2 2 2 2 2 2 2 2 2 2 2 2 2 2 2 2 2 2 2
left_child=1 11 9 4 5 15 -6 8 -8 -2 -10 19 -7 -12 -13 -3 17 -17 -19 20 21 22 23 24 25 26 -1 -9 -5 -30
right_child=2 3 -4 28 6 12 7 27 10 -11 13 14 -14 -15 -16 16 -18 18 -20 -21 -22 -23 -24 -25 -26 -27 -28 -29 29 -31
leaf_value=0.062630015008183451 0.024592627548749024 0.10196887295528004 0.05313017399377843 0.10199760183372789 -0.061373315568342579 -0.042383982605838907 -0.05228920919246445 0.033748582882802504 0.072625028916918036 -0.057197870751200197 0.033410584810210885 0.071288563181658882 0.053928386950294616 -0.070780835103060269 0.0032459666449442953 0.075867701412935806 0.095646504197099511 -0.027207382126639285 0.04689282378205277 0.091632515035019013 0.088600328289987942 0.084874906012370216 0.090723065958734722 0.079465995962209324 0.013730567652878179 0.081856130572843078 0.020222328119666608 0.077060220136975749 0.058183730133290971 0.084292118322987261
leaf_weight=12.72805528342724 5.776397891342639 11.915489837527273 6.3673542588949195 10.212018370628355 8.0175530537962896 6.5258565843105298 12.092176705598833 10.566962242126467 8.9291533529758471 155.89388430118561 6.0100136846303922 8.2505978867411631 5.3205371350049973 4.1376538425683975 7.7880137786269179 25.306972473859787 14.416604459285734 6.5631839931011182 5.2543480545282364 78.074354529380798 80.116133093833923 85.114466995000839 19.317609027028084 26.056728541851044 14.450605332851408 20.114307761192322 11.538383111357687 10.117781057953833 28.382203698158264 27.976518005132675
leaf_count=22 30 19 15 12 55 33 71 32 22 1288 19 15 15 21 27 50 20 27 14 98 106 122 29 40 38 30 27 20 57 45
internal_value=0.0416779 0.0689909 -0.0502057 0.0506163 0.0381759 0.060981 0.00949296 0.0204502 -0.00243443 -0.0542755 0.0291669 0.0791875 0.000872518 -0.00907288 0.0382485 0.0722023 0.0653207 0.0535443 0.00573928 0.081077 0.0780183 0.0735402 0.0642821 0.0582651 0.0488751 0.0603183 0.0424657 0.0549341 0.0758769 0.071144
internal_weight=733.332 565.294 168.038 201.745 135.174 75.303 59.8713 51.8537 31.169 161.67 19.0768 363.549 11.8464 10.1477 16.0386 63.4566 51.5411 37.1245 11.8175 347.511 269.436 189.32 104.206 84.8881 58.8314 44.3807 24.2664 20.6847 66.5707 56.3587
internal_count=2419 1086 1333 532 418 178 240 185 133 1318 62 554 48 40 42 130 111 91 41 512 414 308 186 157 117 79 49 52 114 102
is_linear=0
shrinkage=0.05


Tree=11
num_leaves=31
num_cat=0
split_feature=3 0 8 8 3 1 1 0 0 0 8 1 3 1 5 2 1 8 6 5 4 9 10 0 2 9 8 8 10 1
split_gain=666.866 38.9484 26.5362 22.6391 31.2956 24.5683 38.7076 17.9751 13.8937 13.2604 12.5286 10.3008 10.2844 12.0767 8.32163 7.61407 4.54093 6.36485 4.28453 5.13156 7.99461 5.16712 4.45618 5.61207 7.24688 3.42334 3.95962 3.2895 6.86051 3.27522
threshold=0.02784269995352261 0.45449271852485779 0.39461318365362835 0.31184838380108298 0.0051836199748584401 0.00010801101054608524 0.0055065164689077802 0.90127632358813825 0.49359556268039201 0.68342303260572124 0.096549781364862849 0.003684466054257722 0.010293401464201107 0.0056036791743756705 704.50000000000011 0.0070247782344002663 0.0020607399005295587 0.12726542840441835 671.50000000000011 644.50000000000011 0.020278536135955979 0.01961606875836042 0.014394842820462455 0.33565012486778217 0.001989962273048779 0.41719600581159161 0.10215181363609617 0.071699830195994865 0.20096399285446712 0.0019996296342261756
decision_type=2 2 2 2 2 2 2 2 2 2 2 2 2 2 2 2 2 2 2 2 2 2 2 2 2 2 2 2 2 2
left_child=1 12 8 4 7 -6 15 16 10 -8 -2 -9 18 -14 -11 -7 -3 27 19 20 21 -1 -23 24 -24 -22 -27 28 -18 -21
right_child=2 3 -4 -5 5 6 9 11 -10 14 -12 -13 13 -15 -16 -17 17 -19 -20 29 25 22 23 -25 -26 26 -28 -29 -30 -31
leaf_value=0.08040655453600308 -0.05883882771849247 0.10604679348522353 0.049861254377279889 0.071749225946517461 0.097088960198103494 -0.055994131747882085 0.075226872645790893 -0.042756282657098577 -0.057712637666361158 -0.028702663552448229 0.050986764398613493 0.05085076833169673 -0.011106002391631661 0.075895084240623231 0.053464552225053731 0.023568461463811516 0.040605183248130172 0.032311365685040283 0.086623726230457054 0.05337021757134236 0.087379283128544205 0.031370524945894943 -0.087026684582919192 0.031405710160451648 0.071707110670574933 0.085368318133311819 0.046645252903277784 0.088101269772009272 0.09445344290352925 0.087718257241126682
leaf_weight=22.164460822939873 4.6998800411820394 6.9653870910406104 6.4434975981712332 66.872098684310913 6.9923410862684241 22.845347762107853 13.353216066956522 6.3149565756320936 144.93298108875751 7.7240912467241269 5.8030945882201195 5.4974948465824127 7.3300393447279957 8.750463515520094 5.1266230344772339 3.4628356695175162 15.986199185252191 12.852784022688864 88.650836139917374 7.6782716214656821 56.922400400042534 18.153885588049889 0.73188433051109214 13.100504189729689 40.969014570116997 12.932124376296999 13.486214831471441 18.856381177902222 9.3889251351356489 72.208480343222618
leaf_count=31 38 9 15 114 9 147 25 31 1257 34 23 17 28 14 13 12 39 35 113 14 72 39 3 34 66 19 29 31 16 92
internal_value=0.0399107 0.0655327 -0.0495667 0.0479479 0.0361899 0.00904468 -0.00267901 0.057482 -0.0536885 0.0403341 0.00184191 0.00080828 0.0753276 0.036237 0.00407686 -0.0455216 0.0679341 0.0632836 0.0771391 0.0738845 0.0691698 0.0592639 0.0528406 0.059953 0.0689212 0.0804756 0.0656007 0.0722835 0.0605293 0.0844169
internal_weight=727.197 565.317 161.879 202.239 135.367 59.5045 52.5121 75.8621 155.436 26.2039 10.503 11.8125 363.079 16.0805 12.8507 26.3082 64.0497 57.0843 346.998 258.347 178.46 95.1197 72.9553 54.8014 41.7009 83.3407 26.4183 44.2315 25.3751 79.8868
internal_count=2419 1086 1333 532 418 240 231 178 1318 72 61 48 554 42 47 159 130 121 512 399 293 173 142 103 69 120 48 86 55 106
is_linear=0
shrinkage=0.05


Tree=12
num_leaves=31
num_cat=0
split_feature=3 0 8 4 5 3 2 0 0 3 6 6 10 3 0 5 6 10 9 6 8 5 4 8 7 2 7 6 2 4
split_gain=606.26 36.0852 25.1788 28.7192 20.6921 24.6789 24.1671 17.0161 16.7457 12.1696 11.8227 15.8896 9.53305 9.41668 8.48669 8.04431 7.22252 6.24832 6.12654 4.1267 4.55147 5.7575 5.91927 7.74464 4.05768 3.86322 5.4422 5.8207 4.58021 3.38253
threshold=0.02784269995352261 0.45449271852485779 0.096549781364862849 0.014568788352524365 823.00000000000011 0.0044985373324409562 0.0041554870479735438 1.1216872495388011 0.75758889625699777 0.034750081351273825 672.50000000000011 29.500000000000004 0.17339364616535993 0.010293401464201107 0.62804569097170726 406.50000000000006 43.500000000000007 0.050823876066082262 2.8836212764761622 762.50000000000011 0.019765152078648072 644.50000000000011 0.020278536135955979 0.1661059569236599 0.088316542086447861 0.0041914370649338397 0.097974566711106562 29.500000000000004 0.005639814376133344 0.012811231731941135
decision_type=2 2 2 2 2 2 2 2 2 2 2 2 2 2 2 2 2 2 2 2 2 2 2 2 2 2 2 2 2 2
left_child=1 13 -2 -4 5 10 7 15 16 -5 11 14 -10 19 -3 -7 -8 -15 -6 20 -1 22 23 25 -18 26 27 -22 -27 -20
right_child=2 4 3 9 18 6 8 -9 12 -11 -12 -13 -14 17 -16 -17 24 -19 29 -21 21 -23 -24 -25 -26 28 -28 -29 -30 -31
leaf_value=0.087260061281073775 -0.057265199529315275 0.092216789146659761 0.093148416049114044 0.032021870994572176 0.078975662842655767 -0.056164699811510371 0.017612181804295267 0.055768561804719043 -0.036646776866923296 -0.061785727327524742 0.08549698540740347 -0.02045132260649354 0.033139770888811163 0.06475712232694654 0.029695184193705412 0.0047404682728800947 0.090619815742636389 0.0023428272708816227 0.06696237830360828 0.083853398801221682 0.010633328276404327 0.079831743755441553 0.073913794435771799 0.082500751529968594 0.049604591043015345 0.0073290133778564186 0.082533840589737673 0.056971561994153888 0.051448939791217119 0.02399369253556901
leaf_weight=36.030036002397537 133.16717574000359 11.043491095304494 6.0369488522410419 4.9004249796271351 45.376819804310799 16.605753250420101 7.5545663088560095 6.304543361067771 8.8297760859131831 11.740298911929129 25.558532372117043 8.1318936198949796 10.977494053542612 8.2666281312704104 10.673725128173826 8.0495652779936773 14.411654070019724 7.7873425036668769 8.8532694876194018 77.061910957098007 9.2213463485240919 72.614293739199638 68.775601178407669 19.379956990480423 10.368596248328684 11.302088454365732 13.067448839545248 25.566101133823395 12.267081856727598 9.4892783313989622
leaf_count=45 1207 17 16 20 69 103 21 18 40 90 36 31 38 15 30 32 21 27 18 98 23 98 103 29 30 29 19 45 23 28
internal_value=0.038313 0.06245 -0.0489716 -0.000270306 0.0455379 0.03469 0.0174565 -0.0175357 0.0382335 -0.0341609 0.0605372 0.0391652 0.00203 0.071915 0.0614882 -0.0362801 0.0604105 0.0344817 0.0691184 0.0736555 0.0707256 0.0681599 0.0628488 0.0544681 0.0734582 0.0468618 0.0550226 0.0446884 0.0302922 0.0447331
internal_weight=719.414 563.569 155.845 22.6777 202.229 138.51 83.1019 30.9599 52.1421 16.6407 55.4076 29.8491 19.8073 361.34 21.7172 24.6553 32.3348 16.054 63.7194 345.286 268.224 232.194 159.58 90.804 24.7803 71.4241 47.8549 34.7874 23.5692 18.3425
internal_count=2419 1086 1333 126 532 417 303 153 150 110 114 78 78 554 47 135 72 42 115 512 414 369 271 168 51 139 87 68 52 46
is_linear=0
shrinkage=0.05


Tree=13
num_leaves=31
num_cat=0
split_feature=3 0 8 4 8 3 1 1 0 3 0 7 0 3 1 7 3 6 6 3 6 5 7 10 0 1 10 9 8 1
split_gain=552.214 33.6737 24.4299 25.5343 18.7934 25.5185 21.1048 34.8047 15.342 11.4616 11.3831 13.237 9.32586 8.73959 10.5592 5.31151 4.24339 6.41056 13.2241 5.40925 4.01676 4.64427 7.31417 5.35901 5.96784 6.51247 5.66801 5.03367 9.98409 3.12258
threshold=0.02784269995352261 0.45449271852485779 0.096549781364862849 0.014568788352524365 0.31184838380108298 0.0051836199748584401 0.00010801101054608524 0.0055065164689077802 0.90127632358813825 0.034750081351273825 0.68342303260572124 0.052786377708978337 1.1739803049945778 0.010293401464201107 0.0056036791743756705 0.051320783949182748 0.0026870741734549455 668.50000000000011 29.500000000000004 0.0046150515794128131 671.50000000000011 644.50000000000011 0.14696898496240604 0.050218526083213332 0.29263502773997091 0.0043447353290008003 0.015330092986035418 0.022808633830085027 0.039796651786089078 0.0019996296342261756
decision_type=2 2 2 2 2 2 2 2 2 2 2 2 2 2 2 2 2 2 2 2 2 2 2 2 2 2 2 2 2 2
left_child=1 13 -2 -4 5 8 -7 15 16 -5 -9 -12 -10 20 -15 -8 -3 18 -18 -20 21 22 23 26 -25 -26 27 -1 -29 -23
right_child=2 4 3 9 -6 6 7 10 12 -11 11 -13 -14 14 -16 -17 17 -19 19 -21 -22 29 -24 24 25 -27 -28 28 -30 -31
leaf_value=0.070157666608656258 -0.056861478838755558 0.087612371488359639 0.085867341265665184 0.030013390762699883 0.064961311279033096 0.089537995040624249 -0.013218476112820537 0.06935351400209977 -0.041628060997086394 -0.06115150595302804 0.039844388170784083 -0.067471832579982738 0.047209893467156115 -0.011446325494823389 0.069942367423616911 -0.061303211397317682 0.064221204420787922 0.083313335502957678 -0.031096330606043773 0.036306984195931966 0.079770847067804559 0.047042931537696175 0.078485132070703664 0.063048680558933576 0.039558638595139563 -0.02544141319354162 0.073203416315482869 0.060978963328733309 -0.0043582226542155083 0.080710352351465731
leaf_weight=15.745558455586432 127.54911664128304 12.301097378134726 6.2164691463112858 4.9652092009782818 66.877422586083412 6.9554996788501731 8.7354759350419062 13.430297881364824 6.3997231870889646 11.280600868165491 8.4836031496524793 4.3451219052076331 5.4869428128004074 7.3392639160156277 8.7198974341154081 16.765169218182564 25.928556546568871 14.447013661265371 6.3214319050312024 5.6253527104854584 86.94297069311142 7.6268134564161292 52.579099535942078 14.227081194519995 12.703654929995539 5.5314257293939582 52.408455371856689 14.054138198494913 10.01235620677471 71.006020992994308
leaf_count=23 1207 19 16 20 114 9 39 25 33 90 23 24 15 28 14 120 50 20 25 16 113 14 72 24 29 19 77 23 26 92
internal_value=0.0368188 0.0596047 -0.0483939 -0.000312136 0.0432805 0.032558 0.00776362 -0.00322528 0.0515855 -0.0332888 0.0371792 0.00349611 -0.000620029 0.0687973 0.0327466 -0.0448314 0.0611881 0.0549757 0.0441667 0.0006417 0.0704859 0.0673313 0.062845 0.0562494 0.0387778 0.0198415 0.0623996 0.0481774 0.0337968 0.0774449
internal_weight=711.011 560.999 150.011 22.4623 202.103 135.225 58.7152 51.7597 76.5101 16.2458 26.259 12.8287 11.8867 358.897 16.0592 25.5006 64.6235 52.3224 37.8753 11.9468 342.838 255.895 177.262 124.683 32.4622 18.2351 92.2205 39.8121 24.0665 78.6328
internal_count=2419 1086 1333 126 532 418 240 231 178 110 72 47 48 554 42 159 130 111 91 41 512 399 293 221 72 48 149 72 49 106
is_linear=0
shrinkage=0.05


Tree=14
num_leaves=31
num_cat=0
split_feature=3 9 8 4 5 3 2 5 5 6 7 8 4 1 8 1 6 1 9 10 10 8 9 4 5 1 4 5 2 4
split_gain=504.557 30.6913 23.7018 22.808 21.6485 20.5597 20.5679 15.1047 11.0929 9.2432 10.4375 13.0267 9.09556 8.54566 12.3253 10.2013 5.38285 7.16583 6.13216 10.4127 10.6772 16.5915 5.24321 5.41303 3.88393 3.77201 3.0044 5.01205 4.55977 4.9597
threshold=0.02784269995352261 1.1701997459731339 0.096549781364862849 0.014568788352524365 870.00000000000011 0.0046150515794128131 0.0039073444895027084 406.50000000000006 595.00000000000011 672.50000000000011 0.10718244570967907 0.1248579882491737 0.032179349792197116 0.0072519873399118093 0.077646080608162707 0.0045872127991269098 707.50000000000011 9.9458062749095718e-34 0.41719600581159161 0.11008557389749399 0.053547562380509735 0.12642226647732965 2.5639303541892766 0.011894285053694486 38.500000000000007 0.0056454306173232983 0.020278536135955979 251.50000000000003 0.0020453053756078394 0.011671984895968901
decision_type=2 2 2 2 2 2 2 2 2 2 2 2 2 2 2 2 2 2 2 2 2 2 2 2 2 2 2 2 2 2
left_child=1 16 -2 -4 5 9 7 25 -5 10 11 -3 13 14 -8 -16 17 -1 26 20 24 -22 -6 -24 -20 -7 27 28 -19 -30
right_child=2 4 3 8 22 6 12 -9 -10 -11 -12 -13 -14 -15 15 -17 -18 18 19 -21 21 -23 23 -25 -26 -27 -28 -29 29 -31
leaf_value=-0.09280078074496316 -0.05648278496184083 0.044245423701118003 0.079584383804100378 -0.061884438255694479 0.076309988611179935 -0.062714852553040629 0.05976050265420968 0.024822353061482522 0.026954040159982824 0.077336907712979241 0.081388962098681683 -0.033822351138239962 -0.015269647605037549 0.085282039667843867 0.025677388418709098 -0.070050908444923274 0.076105237325893568 -0.022736019630874717 0.073368890739922102 0.071105087286275501 0.041004055130080409 -0.056812456028533243 0.076120850677312724 0.025867441406097726 0.03667752489197016 -0.011053194220402376 0.07580090871830672 0.0706627156449504 0.074743878493992305 0.039809302126534545
leaf_weight=0.74500370025634666 122.12131123244762 16.162188485264782 6.3677344024181393 10.602876998484133 39.047939449548721 13.230544187128549 15.296082690358164 11.286382429301737 5.2555891126394263 22.095744177699089 9.0522396266460401 7.982891157269477 7.9300502315163603 9.273475229740141 8.0352096408605558 4.2576400116085997 90.651013612747192 2.0796995162963858 14.502642035484316 37.473796859383583 12.442437931895258 6.6532168537378302 8.9217808693647402 13.417132794857023 14.348037436604498 4.8206292092800131 69.146859243512154 74.783072218298912 16.370400473475456 26.779912263154984
leaf_count=3 1207 38 16 82 57 93 40 39 28 32 17 33 35 14 27 23 121 6 23 60 24 27 15 37 30 18 93 107 23 51
internal_value=0.0354645 0.0570611 -0.0478392 -0.000347406 0.0408034 0.0292045 0.0119933 -0.0205498 -0.0324428 0.0522791 0.0356009 0.0184345 0.033308 0.0437582 0.0298008 -0.0074782 0.0655374 0.0620579 0.0624781 0.0513588 0.0359255 0.00692329 0.0652574 0.0459378 0.0551215 -0.0489184 0.0674993 0.0627162 0.0495775 0.0530628
internal_weight=701.134 556.786 144.348 22.2262 190.81 129.423 74.13 29.3376 15.8585 55.2931 33.1973 24.1451 44.7925 36.8624 27.5889 12.2928 365.976 275.325 274.58 85.4201 47.9463 19.0957 61.3869 22.3389 28.8507 18.0512 189.16 120.013 45.23 43.1503
internal_count=2419 1086 1333 126 518 409 289 150 110 120 88 71 139 104 90 50 568 447 444 164 104 51 109 52 53 111 280 187 80 74
is_linear=0
shrinkage=0.05


Tree=15
num_leaves=31
num_cat=0
split_feature=3 0 8 6 3 0 8 7 5 0 3 3 5 8 10 7 5 0 6 5 10 10 4 4 4 2 1 2 2 10
split_gain=463.129 30.9416 24.5123 20.7587 18.1816 17.0264 15.2283 13.7365 13.3981 9.29232 8.65805 8.12814 7.70576 9.91131 10.0845 6.82298 5.56246 6.33009 5.13261 5.78607 8.40794 9.63412 6.83527 5.57896 5.08321 9.72611 5.13311 4.93809 4.35848 4.3383
threshold=0.02784269995352261 0.45449271852485779 0.39461318365362835 531.50000000000011 0.019863390430236352 0.88384090344072785 0.056856567701203543 0.092116574743002166 986.50000000000011 1.3326826881354179 0.010830880518197233 0.0052582222144822765 1327.0000000000002 0.097759169721675657 0.026504041178839786 0.63607447012157947 367.50000000000006 0.5949194449126286 565.50000000000011 667.50000000000011 0.050218526083213332 0.11008557389749399 0.016989728330951928 0.019900293786420428 0.022794310654218226 0.0052380024009647452 0.0048201796207862869 0.0017748195055813419 0.0030333722056523457 0.17339364616535993
decision_type=2 2 2 2 2 2 2 2 2 2 2 2 2 2 2 2 2 2 2 2 2 2 2 2 2 2 2 2 2 2
left_child=1 10 7 4 5 12 11 -2 9 -7 18 -5 13 24 -15 16 17 -16 19 20 23 22 -22 27 26 -26 28 -1 -3 -8
right_child=2 3 -4 6 -6 8 29 -9 -10 -11 -12 -13 -14 14 15 -17 -18 -19 -20 -21 21 -23 -24 -25 25 -27 -28 -29 -30 -31
leaf_value=-0.10417692013148526 0.026111584853269084 0.074257163860980205 0.050998357820818442 0.043712341687510363 -0.045718752897532633 -0.05467161520813614 0.063712512210395672 -0.055075224684561379 0.03667190941433953 0.028757690807096462 0.023996682793349097 -0.033849231141003876 0.07333667798339584 0.061600008223924044 0.003047915581316632 0.049458901497045793 0.016249248015329676 -0.070399421983394939 0.075095914165835997 0.073040452595267313 -0.010631829550134614 0.067356983654636368 0.040512565769943845 0.074053050353486263 -0.010876022714311115 0.074638244904787501 0.094465150318836288 0.05421632716758417 0.024742924542262297 0.093916644237143243
leaf_weight=0.49567161500453849 5.4321856945753089 8.8253891766071373 6.0691378712654105 9.2667039036750776 7.9512677788734427 11.764070816338068 39.86427990347147 127.42293585836887 13.185381695628164 4.6594615876674643 13.211030736565588 5.3153395727276793 16.743558898568153 9.6409084200859052 5.799653455615049 6.0286930054426184 10.297442361712454 5.9362561479210854 95.331456422805786 74.561259657144547 11.375600025057794 16.470845639705658 15.345374241471289 59.103611260652542 7.3549376577138883 6.0686374306678772 9.7506907582283002 67.703037530183792 8.9532133713364583 16.940604090690613
leaf_count=2 28 15 13 19 55 68 69 1293 32 14 38 32 25 20 20 13 27 33 127 102 33 27 32 80 30 12 14 115 26 22
internal_value=0.0344201 0.0547596 -0.0472667 0.0392708 0.0275937 0.0322568 0.0610197 -0.0517557 -0.000865695 -0.0310022 0.0637106 0.0154402 0.042537 0.0359806 0.0174826 0.00232578 -0.0105706 -0.0341032 0.065252 0.0614225 0.0563418 0.0372794 0.0187395 0.0628093 0.0530106 0.027784 0.0653114 0.0530651 0.049322 0.0727201
internal_weight=696.869 557.944 138.924 204.346 132.96 125.008 71.3869 132.855 29.6089 16.4235 353.598 14.582 95.3994 78.6558 37.703 28.062 22.0334 11.7359 340.387 245.055 170.494 43.1918 26.721 127.302 40.9529 13.4236 27.5293 68.1987 17.7786 56.8049
internal_count=2436 1102 1334 546 404 349 142 1321 114 82 556 51 235 210 113 93 80 53 518 391 289 92 65 197 97 42 55 117 41 91
is_linear=0
shrinkage=0.05


Tree=16
num_leaves=31
num_cat=0
split_feature=3 0 8 6 3 0 8 7 5 0 3 3 5 8 10 4 4 6 6 9 5 10 4 6 8 10 7 4 1 4
split_gain=424.322 29.185 23.0344 18.9254 16.5616 15.3367 13.8041 13.1969 12.1752 8.87482 8.2106 7.37617 7.10617 8.91686 7.08777 10.8362 7.27052 5.94553 5.01763 5.68068 8.46218 5.74044 9.83976 4.85917 7.77837 3.94702 4.62331 3.83166 3.25094 3.09775
threshold=0.02784269995352261 0.45449271852485779 0.39461318365362835 531.50000000000011 0.019863390430236352 0.88384090344072785 0.056856567701203543 0.092116574743002166 986.50000000000011 1.1216872495388011 0.010830880518197233 0.0052582222144822765 1327.0000000000002 0.048293497215531118 0.14906713384856077 0.012683955602228189 0.018379102703366786 19.500000000000004 565.50000000000011 0.24403728238358383 704.50000000000011 0.023070742112832103 0.014687752419617436 322.50000000000006 0.12295518804655924 0.17339364616535993 0.02196735726847682 0.025985649192144411 0.0054748518824021455 0.019900293786420428
decision_type=2 2 2 2 2 2 2 2 2 2 2 2 2 2 2 2 2 2 2 2 2 2 2 2 2 2 2 2 2 2
left_child=1 10 7 4 5 12 11 -2 9 -7 18 -5 13 28 16 -16 17 -15 19 29 21 -21 -23 24 -24 26 -8 -18 -3 -1
right_child=2 3 -4 6 -6 8 25 -9 -10 -11 -12 -13 -14 14 15 -17 27 -19 -20 20 -22 22 23 -25 -26 -27 -28 -29 -30 -31
leaf_value=0.059429131594512491 0.024477387260218489 0.046545564570794146 0.048161099876162128 0.041559109510173123 -0.044613448529714272 -0.065517798458890539 0.028753319688268164 -0.054676496763363718 0.034698472975364499 0.008697726484972218 0.022723372875690331 -0.032779629755144368 0.070176856303594673 0.041235725501675022 0.043302779161208588 -0.044363422694757002 0.077866161950342738 -0.011781781398596881 0.072678438362687531 0.062475836448475978 0.070557858349180949 -0.0079781219242800305 0.052552328347603872 0.076500174222961514 -0.0072123621979180794 0.089776453130093192 0.069956903472442905 0.034159944458613478 0.085947360769508332 0.074365626050376638
leaf_weight=88.554016202688217 5.5032198801636687 14.856865249574186 6.1043827533721915 9.25963346660137 7.7461118400096884 8.4155367687344604 8.731379881501196 122.07001668959856 13.237121254205702 7.7266201525926581 13.252638429403303 5.2168826907873145 16.625494495034218 10.109013348817827 6.1649659126996985 8.2313660755753499 9.7957405894994753 11.088235974311827 93.620566055178642 18.735494628548622 32.235149204730988 12.604657784104345 16.347034484148029 8.5107174366712552 8.1628473997116071 16.838145971298218 30.906832851469517 10.27426854521036 8.0832349359989148 57.092922061681747
leaf_count=139 28 40 13 19 55 53 21 1293 32 29 38 32 25 20 15 37 17 38 127 29 45 35 29 13 25 22 48 32 11 76
internal_value=0.0332119 0.0525546 -0.0467218 0.0374947 0.0263253 0.0307351 0.0583301 -0.051262 -0.000846022 -0.0299937 0.0613247 0.0147698 0.0404782 0.0341966 0.0233856 -0.00682197 0.0339237 0.0135024 0.0628479 0.0590486 0.0496467 0.0391734 0.0296045 0.0439505 0.0326481 0.0694958 0.0608807 0.055492 0.0604293 0.0652842
internal_weight=686.101 552.423 133.678 203.307 132.355 124.608 70.9529 127.573 29.3793 16.1422 349.116 14.4765 95.2292 78.6037 55.6636 14.3963 41.2673 21.1972 335.863 242.243 96.5959 64.3608 45.6253 33.0206 24.5099 56.4764 39.6382 20.07 22.9401 145.647
internal_count=2436 1102 1334 546 404 349 142 1321 114 82 556 51 235 210 159 52 107 58 518 391 176 131 102 67 54 91 69 49 51 215
is_linear=0
shrinkage=0.05


Tree=17
num_leaves=31
num_cat=0
split_feature=3 0 8 1 6 3 0 8 8 5 7 3 3 5 8 10 7 6 5 10 10 4 4 5 0 7 2 10 7 2
split_gain=389.3 27.6871 22.203 21.0743 17.3893 15.0831 13.7937 12.5878 11.7068 14.9008 10.3214 7.8178 6.69789 6.61342 8.32386 8.58424 6.11724 4.91657 5.54232 7.56617 8.92825 5.87989 5.38697 4.87846 5.93606 4.63737 4.51984 3.62227 4.30736 3.10449
threshold=0.02784269995352261 0.45449271852485779 0.096549781364862849 0.002859001476855064 531.50000000000011 0.019863390430236352 0.88384090344072785 0.056856567701203543 0.70401357392716912 986.50000000000011 0.1537907732664234 0.010830880518197233 0.0052582222144822765 1327.0000000000002 0.097759169721675657 0.026504041178839786 0.63607447012157947 565.50000000000011 667.50000000000011 0.050218526083213332 0.11008557389749399 0.016989728330951928 0.019900293786420428 367.50000000000006 0.5949194449126286 0.085214533224622926 0.0017748195055813419 0.17339364616535993 0.02196735726847682 0.0037140371437787861
decision_type=2 2 2 2 2 2 2 2 2 2 2 2 2 2 2 2 2 2 2 2 2 2 2 2 2 2 2 2 2 2
left_child=1 11 -2 -4 5 6 13 12 9 -8 -5 17 -6 14 25 -16 23 18 19 22 21 -21 26 24 -17 29 -1 28 -9 -3
right_child=2 4 3 10 7 -7 8 27 -10 -11 -12 -13 -14 -15 15 16 -18 -19 -20 20 -22 -23 -24 -25 -26 -27 -28 -29 -30 -31
leaf_value=-0.10184105066249363 -0.055515011666614093 0.041890218598495239 0.07535252283848061 0.029569631006354513 0.039542939589769711 -0.043526169546901874 -0.052935433800385984 0.027329410278129782 0.060253371069651521 0.028223796900335496 -0.060009724788734099 0.021525869263968905 -0.031734707520829609 0.0672952881421435 0.05608504316933182 0.0024991624224360263 0.045884680014702979 0.070476242714713241 0.068442195112935325 -0.011382543786946565 0.062899685249172929 0.036160561014644224 0.069421511112004813 0.014103173384421004 -0.069131434974717895 0.020119031292059664 0.049633468947115761 0.086121243000131173 0.067152354089960398 0.073991517376346447
leaf_weight=0.49614483118057151 107.04307597875595 14.876935034990312 6.4988440424203899 4.650958038866519 9.245505288243292 7.5477202832698813 12.870235599577432 8.7270855605602247 6.1804759055376044 10.088910728693007 10.419539630413054 13.289418548345564 5.121684066951274 16.474306538701057 9.6634714901447278 5.8060667067766243 6.0573628544807425 91.765679866075516 72.141228914260864 11.334898054599764 16.291686698794365 15.256703600287436 56.972249299287796 10.319505795836447 5.7632418274879456 10.92727419734001 66.580034956336021 16.679051861166954 30.595572412014008 15.254076585173605
leaf_count=2 1204 35 19 18 19 55 77 21 11 26 93 38 32 25 20 20 13 127 102 33 27 32 80 27 33 37 115 22 48 25
internal_value=0.032075 0.0504995 -0.0461895 9.07632e-05 0.0358152 0.0251023 0.0292702 0.0558848 -0.000828756 -0.0172717 -0.0323643 0.0591276 0.0141335 0.0384887 0.0324562 0.0154626 0.00141583 0.060638 0.0568617 0.051857 0.0337524 0.0158949 0.0581158 -0.0108902 -0.0331836 0.0480224 0.0485131 0.066596 0.0583142 0.0581418
internal_weight=674.939 546.327 128.612 21.5693 202.198 131.83 124.282 70.3689 29.1396 22.9591 15.0705 344.128 14.3672 95.1422 78.6679 37.6096 27.9462 330.839 239.073 166.932 42.8833 26.5916 124.048 21.8888 11.5693 41.0583 67.0762 56.0017 39.3227 30.131
internal_count=2436 1102 1334 130 546 404 349 142 114 103 111 556 51 235 210 113 93 518 391 289 92 65 197 80 53 97 117 91 69 60
is_linear=0
shrinkage=0.05


Tree=18
num_leaves=31
num_cat=0
split_feature=3 0 8 1 6 3 0 1 4 8 3 7 0 5 8 10 3 8 4 6 9 5 10 4 4 6 8 1 0 10
split_gain=357.776 26.1908 21.547 18.9187 15.9795 13.7638 12.4191 13.2653 13.833 11.5247 10.3177 9.74196 7.5545 6.15945 7.44534 7.73009 6.08506 5.96217 6.71412 4.98351 5.64531 7.90158 5.21552 8.60889 4.53767 4.44465 7.14214 4.30434 3.39284 3.35982
threshold=0.02784269995352261 0.45449271852485779 0.096549781364862849 0.002859001476855064 531.50000000000011 0.019863390430236352 0.88384090344072785 0.0012299302280466375 0.019349114353781789 0.056856567701203543 0.012008385332550955 0.1537907732664234 1.2596905977233768 1327.0000000000002 0.097759169721675657 0.026504041178839786 0.0052582222144822765 0.1661059569236599 0.015671301457472222 565.50000000000011 0.24403728238358383 704.50000000000011 0.023070742112832103 0.014687752419617436 0.022794310654218226 322.50000000000006 0.12295518804655924 0.0048201796207862869 0.5949194449126286 0.17339364616535993
decision_type=2 2 2 2 2 2 2 2 2 2 2 2 2 2 2 2 2 2 2 2 2 2 2 2 2 2 2 2 2 2
left_child=1 10 -2 -4 5 6 13 -8 12 16 19 -5 -9 14 24 -16 -6 28 -19 20 -1 22 -22 -24 27 26 -25 -3 -17 -11
right_child=2 4 3 11 9 -7 7 8 -10 29 -12 -13 -14 -15 15 17 -18 18 -20 -21 21 -23 23 25 -26 -27 -28 -29 -30 -31
leaf_value=0.061210333242705507 -0.055217820136761131 0.042642588948353183 0.070187100581748138 0.027840313916776684 0.037649675233510753 -0.042455561572063712 0.067852472902910965 -0.025353141539070308 -0.065636352516382029 0.05593166715880496 0.010856994719135288 -0.059496809507681964 0.048087298367203629 0.064649798151705462 0.053247280001330867 0.049981024603215414 -0.030713644530154238 0.011378410049246853 -0.056719448644254405 0.068687526883120673 0.0578717826434378 0.06611182080442006 -0.0089376900054582431 0.048210655661888153 0.021892520332570446 0.071000712983539466 -0.0091384804769408714 0.084019381736346876 -0.00064451089365504986 0.082867083936917246
leaf_weight=141.85013663768768 102.35667076706886 17.840275630354885 6.6248413398861912 4.6917740926146498 9.2254060059785825 7.3560701534152022 5.6530039459466961 6.6175990402698535 9.0931099876761419 38.958362981677055 11.66125166416168 9.9946515858173353 7.4368385672569275 16.295530065894127 9.669344946742056 6.8682904243469256 5.0297311693429938 7.6624067276716215 6.8603339344263077 90.64569079875946 18.309328243136406 31.073237195611 12.562528714537619 16.115943506360058 13.566309653222559 8.4437404274940473 8.1867943704128248 9.7044013738632184 6.3872360587120056 16.472474411129951
leaf_count=216 1204 41 19 18 19 55 9 29 59 69 36 93 17 25 20 15 32 21 30 128 29 45 35 29 42 13 25 14 27 22
internal_value=0.0310122 0.048594 -0.0456947 4.45299e-05 0.0342799 0.0239903 0.0279431 -0.000813447 -0.0175828 0.0536246 0.0570721 -0.0315958 0.0135075 0.0366744 0.0308715 0.0147434 0.0135286 0.00134059 -0.02079 0.0587193 0.0548993 0.0454452 0.035351 0.0262503 0.0455624 0.0397495 0.0288916 0.0572203 0.0255869 0.0639361
internal_weight=663.213 539.545 123.668 21.3113 200.697 131.011 123.655 28.8006 23.1475 69.686 338.849 14.6864 14.0544 94.8541 78.5586 37.4476 14.2551 27.7783 14.5227 327.187 236.542 94.6916 63.6183 45.309 41.111 32.7465 24.3027 27.5447 13.2555 55.4308
internal_count=2436 1102 1334 130 546 404 349 114 105 142 556 111 46 235 210 113 51 93 51 520 392 176 131 102 97 67 54 55 42 91
is_linear=0
shrinkage=0.05


Tree=19
num_leaves=31
num_cat=0
split_feature=3 1 0 7 4 6 5 3 0 3 0 10 6 9 5 10 4 3 0 7 9 5 7 4 9 1 2 1 4 2
split_gain=329.182 28.4236 24.8738 20.7997 20.8785 14.701 12.8796 16.0353 14.9551 9.74516 9.25688 6.1363 4.9157 5.41414 7.55458 4.85974 7.8342 4.72914 8.32348 4.43156 18.5657 7.98406 6.14205 5.86985 7.71986 4.52344 3.92016 3.79981 3.10083 7.46134
threshold=0.02784269995352261 6.629203780087775e-33 0.45449271852485779 0.1537907732664234 0.01677226871360555 531.50000000000011 2964.5000000000005 0.019863390430236352 0.88384090344072785 0.012008385332550955 1.2481638660035823 0.047502541532975256 565.50000000000011 0.24403728238358383 704.50000000000011 0.023070742112832103 0.014687752419617436 0.014594935426539108 0.98732660884401557 0.056824646448459602 1.5507015818558243 23.500000000000004 0.14112146892655369 0.015671301457472222 1.542945379949199 0.0036514834290039054 0.0038079232494387192 0.0031623087090321129 0.019900293786420428 0.0017748195055813419
decision_type=2 2 2 2 2 2 2 2 2 2 2 2 2 2 2 2 2 2 2 2 2 2 2 2 2 2 2 2 2 2
left_child=2 -2 9 4 -3 6 7 8 19 12 11 -10 13 28 15 -15 -17 27 -19 23 21 -21 -23 -4 -25 -22 -18 -7 29 -1
right_child=1 3 5 -5 -6 17 -8 -9 10 -11 -12 -13 -14 14 -16 16 26 18 -20 20 25 22 -24 24 -26 -27 -28 -29 -30 -31
leaf_value=-0.10449879114878652 0.12851521776510069 0.10146195852261707 0.057358390598598034 -0.055467541235289609 -0.039284837937602554 0.037236718116024213 0.075801590224971779 -0.059228262806226319 0.0012972277163982443 0.010297623186470291 0.023421625904826365 -0.065184447376491969 0.06681811088103233 0.055736382343950723 0.064143261399873502 -0.008490103558955301 0.015843958569919808 -0.014885474436216753 0.06156878677246691 0.027956025206190723 0.029270897026166157 -0.072422912429920008 -0.0028806522008045007 0.046707122515026234 -0.013088121259928627 0.080102552929943754 0.051583920746079703 0.066482588700791975 0.068649844700808357 0.054702930788698437
leaf_weight=0.74240706861019035 2.3086678981780997 4.3804762959480268 27.837629199028015 105.59150023758411 6.6121320128440857 15.503771036863325 10.584437251091002 6.3238399326801291 5.9044291004538563 11.679480649530886 10.861321598291395 8.4214138835668546 88.575279116630554 18.066460058093071 30.441605314612389 12.56353949010372 12.38132821023464 6.6742174103856069 7.6292704567313194 7.3246166855096844 8.0958634018898028 6.3394831717014295 6.3609044328331947 13.642064943909647 8.9319052994251233 9.5268734917044622 20.173837810754776 39.157580718398094 53.683641240000725 84.905357763171196
leaf_count=3 3 7 48 1272 52 33 14 54 22 36 32 56 128 29 45 35 30 34 13 21 24 34 25 26 30 18 37 62 76 137
internal_value=0.0300074 -0.0452131 0.0468073 -0.0486533 0.0168018 0.0328259 0.0229365 0.0182568 0.0225837 0.0551623 -0.0113906 -0.0377839 0.056792 0.0529799 0.0436812 0.0338229 0.0250484 0.0514898 0.0258941 0.0323012 0.0193217 -0.013617 -0.0375931 0.0419943 0.0230478 0.0567506 0.0379914 0.0581875 0.0592283 0.0533229
internal_weight=651.225 118.893 532.333 116.584 10.9926 199.12 130.155 119.57 113.247 333.213 25.1872 14.3258 321.533 232.958 93.6268 63.1852 45.1187 68.9648 14.3035 88.0593 37.6477 20.025 12.7004 50.4116 22.574 17.6227 32.5552 54.6614 139.331 85.6478
internal_count=2436 1334 1102 1331 59 546 404 390 336 556 110 78 520 392 176 131 102 142 47 226 122 80 59 104 56 42 67 95 216 140
is_linear=0
shrinkage=0.05


Tree=20
num_leaves=31
num_cat=0
split_feature=3 0 7 8 9 7 6 3 2 7 5 7 0 8 5 8 5 3 7 5 1 1 5 3 7 10 6 10 9 7
split_gain=312.225 26.0109 18.883 13.7173 12.4892 9.81536 8.46019 10.1395 11.7385 14.0881 16.5998 10.2152 8.22584 9.86942 10.084 8.3827 7.4805 6.23341 5.82043 5.5116 4.51742 4.31989 5.3563 3.71072 3.47695 4.58942 6.7743 7.3242 9.34646 4.78004
threshold=0.02784269995352261 0.45449271852485779 0.1537907732664234 0.015405038577185755 1.5243042671022076 0.037987341772151906 651.00000000000011 0.0027919085554704124 0.0039531503264903347 0.25262395527259918 222.50000000000003 0.04807333646875659 0.82629239951679267 0.31184838380108298 704.50000000000011 0.059791191483545426 975.50000000000011 0.013300859123836902 0.1303478744789833 1154.0000000000002 0.0058727613844787177 0.0047013310428211993 879.00000000000011 0.0045429968062408394 0.03997596448156096 0.028335120638149944 381.50000000000006 0.11008557389749399 0.6477865458738522 0.097974566711106562
decision_type=2 2 2 2 2 2 2 2 2 2 2 2 2 2 2 2 2 2 2 2 2 2 2 2 2 2 2 2 2 2
left_child=1 17 4 5 -2 -3 7 -5 9 10 -9 16 15 14 -14 -10 -12 24 -6 20 -17 22 23 -8 -1 29 27 28 -27 -26
right_child=2 3 -4 6 18 -7 21 8 12 -11 11 -13 13 -15 -16 19 -18 -19 -20 -21 -22 -23 -24 -25 25 26 -28 -29 -30 -31
leaf_value=0.06006573964626976 0.08622010337644144 0.03083919346107819 -0.054063274855087808 0.062653420078476768 -0.058648878381887121 -0.060177161033159898 0.047753330920199615 -0.071819726064742281 0.076526939930218474 0.051659345197320496 -0.061113084842076039 0.039484142760974041 -0.063927747019781725 0.049830013663487382 0.036255876496754665 -0.00053128875251264767 0.01093797241936611 0.017540082232701579 0.035183112790164062 0.066307310503828751 0.044704184954117293 0.069285069389200024 0.076438520584265979 0.01043150646067134 0.044574843642463891 0.036478400233856491 0.066931113855090527 0.062539717266106173 -0.014922985255357355 0.066267767877377134
leaf_weight=147.08439619839191 3.9354978352785093 5.1587174385786039 100.72146642953157 16.899221301078796 4.5643750950694084 6.9567224755883217 13.273216411471369 8.994964197278021 15.258815035223959 11.005170471966265 6.6425783112645167 12.608546547591684 6.4338908120989817 7.6286578029394141 4.1202975958585739 13.120619073510175 7.870920404791832 11.905140139162539 2.5907816216349602 8.2144454270601255 9.5264103859662992 19.122462511062622 7.6728000640869132 13.366982340812681 45.97226956486702 30.270724222064018 18.157010495662689 14.540479645133017 12.493948712944983 56.731972202658653
leaf_count=228 7 13 1258 27 43 59 24 54 24 30 30 36 42 15 11 46 22 33 11 12 20 30 10 39 81 59 28 24 38 83
internal_value=0.0286944 0.044684 -0.0472449 0.030091 0.0146768 -0.0214227 0.0335248 0.0265638 0.0210903 0.00213244 -0.0129588 0.00656223 0.0349828 0.00650157 -0.0248166 0.0462115 -0.0220386 0.0530753 -0.0246736 0.0312227 0.0184969 0.0502415 0.0396286 0.0290267 0.054376 0.0496789 0.040317 0.0318844 0.0214612 0.0565576
internal_weight=642.844 531.031 111.812 193.875 11.0907 12.1154 181.76 128.325 111.425 47.1222 36.117 27.122 64.3031 18.1828 10.5542 46.1203 14.5135 337.156 7.15516 30.8615 22.647 53.4355 34.313 26.6402 325.251 178.166 75.4622 57.3052 42.7647 102.704
internal_count=2437 1118 1319 544 61 72 472 369 342 172 142 88 170 68 53 102 52 574 54 78 66 103 73 63 541 313 149 121 97 164
is_linear=0
shrinkage=0.05


Tree=21
num_leaves=31
num_cat=0
split_feature=3 0 8 8 9 3 1 4 6 1 3 2 6 6 0 3 3 8 8 5 5 2 5 6 5 9 2 1 1 8
split_gain=288.003 24.544 12.4858 12.3581 10.572 8.80645 8.06906 11.3538 11.9287 12.0825 9.22877 14.8354 6.55302 10.8761 6.71955 5.95763 4.90918 4.13046 9.40317 3.92384 4.33154 3.78905 6.52459 3.15812 4.31778 5.33086 5.40724 4.7796 5.43427 9.31115
threshold=0.02784269995352261 0.45449271852485779 0.015405038577185755 0.39461318365362835 1.4042687679290606 0.0044403662718195472 0.0012299302280466375 0.015835571607569963 17.500000000000004 0.0049836505778226708 0.0058495017696395197 0.00612375156025524 29.500000000000004 277.50000000000006 0.64389416144327061 0.013300859123836902 0.0059147773421186914 0.38432569412805651 0.17484827334539463 406.50000000000006 44.000000000000007 0.0039531503264903347 345.00000000000006 731.00000000000011 667.50000000000011 0.027045806724998126 0.0018722508980253056 0.0068502073426216711 0.0050164579550246386 0.090737577121529925
decision_type=2 2 2 2 2 2 2 2 2 2 2 2 2 2 2 2 2 2 2 2 2 2 2 2 2 2 2 2 2 2
left_child=1 15 5 4 -2 -3 -4 17 16 12 -11 -12 14 -14 -10 23 -9 18 19 20 -8 22 -15 24 25 -1 -27 28 -28 -30
right_child=3 2 6 -5 -6 -7 7 8 9 10 11 -13 13 21 -16 -17 -18 -19 -20 -21 -22 -23 -24 -25 -26 26 27 -29 29 -31
leaf_value=0.059633569855946846 0.016975822131673625 0.046947447784840807 0.060961999004594959 0.026940840170479943 -0.054534159793756344 -0.048278514531566667 0.045724691779181932 -0.077344781274516175 0.055472013688640444 0.077214662121226504 -0.033750402236391371 0.059245097307966746 -0.068171425658112114 -0.041135562454068936 -0.0077000843087919255 0.016639911970410242 -0.00046919902710349957 0.058859165941948489 -0.014631893817263803 0.061002517897739944 -0.00089159252780984279 0.031997457749290054 0.032400074382185222 0.062036294649996597 0.060484715405339617 -0.095764483699520231 0.042543100736881417 0.065595689593884551 0.041794194623223785 -0.028616871186439265
leaf_weight=50.543150827288628 5.4609802141785613 3.4096993356943122 21.404270350933075 5.3958340734243384 96.504170797765255 8.4318205267190915 14.528744079172613 4.4008573815226537 10.188642933964731 13.376740872859957 7.1119563877582577 10.802870459854601 6.1956845000386265 7.2971495017409342 7.1730915904045096 11.921282432973383 3.9322696104645729 25.448778003454208 8.2539791837334615 18.370057813823223 7.5846200734376898 8.8962647691369039 5.1420517414808273 69.861675024032593 70.546511381864548 0.724309042096137 90.747242748737335 17.394138395786285 11.670367956161501 7.8559049963951102
leaf_count=79 22 8 34 13 1284 64 33 23 20 21 35 22 39 35 30 33 17 41 27 32 27 26 10 108 109 3 171 26 21 24
internal_value=0.0277943 0.043101 0.0288746 -0.0468019 -0.0507043 -0.0208587 0.0321444 0.0282577 0.0157282 0.0219407 0.0457908 0.0223271 0.00531645 -0.00985358 0.0293721 0.0513445 -0.0410684 0.0425322 0.0340069 0.0439237 0.0297359 0.00708156 -0.0107378 0.05264 0.0500088 0.0458786 0.0404638 0.0412367 0.0373944 0.0134661
internal_weight=630.575 523.214 191.95 107.361 101.965 11.8415 180.108 158.704 84.5176 76.1845 31.2916 17.9148 44.8929 27.5312 17.3617 331.265 8.33313 74.1862 48.7374 40.4834 22.1134 21.3355 12.4392 319.343 249.482 178.935 128.392 127.668 110.274 19.5263
internal_count=2437 1118 544 1319 1306 72 472 438 278 238 78 57 160 110 50 574 40 160 119 92 60 71 45 541 433 324 245 242 216 45
is_linear=0
shrinkage=0.05


Tree=22
num_leaves=31
num_cat=0
split_feature=3 9 7 4 6 5 4 6 8 4 7 1 8 8 9 3 9 8 3 1 1 9 3 7 7 9 10 3 9 5
split_gain=265.793 19.207 18.048 17.7029 11.5288 10.2696 8.00407 13.2709 9.4686 7.16659 8.86715 9.50996 10.7211 5.64528 6.09076 5.57316 5.53618 5.41627 5.33254 5.30564 5.11122 6.09784 5.82959 5.0215 10.5401 5.27182 4.64992 4.60192 3.33449 3.06517
threshold=0.02784269995352261 0.45238633120355703 0.1537907732664234 0.01677226871360555 668.50000000000011 704.50000000000011 0.031191897837192673 26.500000000000004 0.015405038577185755 0.0061417299269556141 0.21752432350258441 0.0069107537974968354 0.12726542840441835 0.15989300146650687 0.7834993305529484 0.0059147773421186914 2.5639303541892766 0.36705744805599005 0.0098734199419484459 9.9458062749095718e-34 0.0047013310428211993 3.1027571961396192 0.012008385332550955 0.055874137364442987 0.088316542086447861 1.1423220433255321 0.14455993454156493 0.0031658576675278158 1.4483024780715084 1978.5000000000002
decision_type=2 2 2 2 2 2 2 2 2 2 2 2 2 2 2 2 2 2 2 2 2 2 2 2 2 2 2 2 2 2
left_child=1 19 3 -2 5 6 8 -8 -3 -10 11 12 23 -14 -15 -12 -7 26 -9 -1 21 22 -6 28 -25 -26 -16 -18 -11 -4
right_child=2 4 29 -5 20 16 7 18 9 10 15 -13 13 14 17 -17 27 -19 -20 -21 -22 -23 -24 24 25 -27 -28 -29 -30 -31
leaf_value=-0.11144096389031083 0.091933648296053841 -0.041464960594812222 -0.054789616363043317 -0.038478602022679928 0.060140289686805043 0.051169653039969121 -0.081615173688967965 0.041450045053240563 0.081331553529296829 0.023139716268835375 0.080982407414653332 0.062161915669425319 -0.056235722678714822 0.040647982200031213 -0.075876858482543427 0.026543071349089634 0.044280950296232191 0.019622018360743371 -0.021720898254340953 0.052595246612832408 0.067016635393238599 0.00038139130165737407 0.018998880092875845 -0.035159464163210662 0.05801896381921548 0.0019378924817390704 -0.0048024156286142787 -0.0019819928987350461 0.060294369484457815 0.011144000389248713
leaf_weight=0.49399569630622764 4.4061451628804189 5.3546077758073798 90.526770688593388 6.3561637923121452 28.618560239672661 50.077894538640976 4.9863104224205044 7.6243228241801244 5.676851198077201 12.552338361740114 9.7682873904705065 10.26079051196575 6.2174444794654873 5.9829640090465572 4.9195962250232679 9.0632259696722013 10.608423173427584 5.6174291670322409 5.9460805281996727 231.70906446874142 26.91162683069706 8.1411639451980573 12.315686807036398 8.7832910344004649 9.1634450107812899 7.7217387929558745 4.3237061351537704 10.897160299122332 11.637084163725374 1.7977157235145558
leaf_count=2 7 36 1246 54 47 89 28 24 9 27 15 19 29 13 25 29 21 15 37 388 43 23 38 36 15 31 21 36 22 12
internal_value=0.0269272 0.041587 -0.0463628 0.0149129 0.0328462 0.0267363 0.0186482 -0.0118601 0.0234852 0.0265991 0.0236682 0.0169474 0.0109159 -0.0144218 -0.00194913 0.0547819 0.0420575 -0.0190988 0.0137707 0.0522463 0.0495051 0.0399022 0.0477623 0.0246683 0.00926435 0.0323726 -0.0426306 0.0208389 0.0410141 -0.0535058
internal_weight=618.46 515.373 103.087 10.7623 283.17 207.183 135.6 18.5567 117.043 111.688 106.011 87.1798 76.919 27.0611 20.8437 18.8315 71.5835 14.8607 13.5704 232.203 75.987 49.0754 40.9342 49.8579 25.6685 16.8852 9.2433 21.5056 24.1894 92.3245
internal_count=2437 1118 1319 61 728 577 431 89 342 306 297 253 234 103 74 44 146 61 61 390 151 108 85 131 82 46 46 57 49 1258
is_linear=0
shrinkage=0.05


Tree=23
num_leaves=31
num_cat=0
split_feature=3 9 7 4 6 5 3 8 1 3 9 5 9 7 7 7 8 4 9 3 6 1 9 3 1 1 1 5 6 1
split_gain=245.303 18.4666 17.3042 16.0598 10.767 9.65073 9.31705 11.5488 6.04742 6.86059 14.8253 7.50094 6.98654 19.2501 6.95961 10.949 11.7149 9.34948 8.95727 5.38912 5.70992 4.84205 5.65387 5.54251 4.83834 4.55498 5.29875 2.99566 2.93426 9.88945
threshold=0.02784269995352261 0.45238633120355703 0.1537907732664234 0.01677226871360555 668.50000000000011 3210.5000000000005 0.019317574271804343 0.29887128224151649 0.0081358330674593717 0.0027919085554704124 3.1329515548476672 1324.0000000000002 1.7784050914922032 0.072853713555048924 0.056824646448459602 0.1303478744789833 0.12726542840441835 0.024712593384474145 0.96901495001572291 0.0052582222144822765 84.500000000000014 0.0047013310428211993 3.1027571961396192 0.012008385332550955 9.9458062749095718e-34 0.0035756600952726804 0.0049836505778226708 1978.5000000000002 29.500000000000004 0.0019996296342261756
decision_type=2 2 2 2 2 2 2 2 2 2 2 2 2 2 2 2 2 2 2 2 2 2 2 2 2 2 2 2 2 2
left_child=1 24 3 -2 5 6 8 -8 9 -3 11 12 14 -14 25 16 17 18 -16 -17 -21 22 23 -6 -1 -11 -27 -4 29 -26
right_child=2 4 27 -5 21 -7 7 -9 -10 10 -12 -13 13 -15 15 19 -18 -19 -20 20 -22 -23 -24 -25 28 26 -28 -29 -30 -31
leaf_value=-0.1049840441341601 0.087394973005673629 0.048571540730593256 -0.054551158020500784 -0.037440839565862992 0.05831086491194426 0.071788921689056553 -0.047168501164467358 0.061252246700051111 0.060509139645784686 0.057042952551993445 -0.043233548272617703 0.055864655977167103 -0.058641699886371579 0.036838504540511297 0.032654113411688751 0.058591263228947234 -0.074413154641606624 0.052685551559345248 -0.053026488753870719 -0.026692130779231122 0.037767921795275709 0.064990200556799535 0.00036232116298443072 0.018063329076001087 -0.040767093172163517 0.0036903477657598397 0.046959873891238263 0.010548974416439127 0.055321303306919978 0.047059981135639042
leaf_weight=0.49803879857063194 4.4032263681292516 23.583305418491364 86.478629685938358 6.2094988971948624 28.055015087127686 10.720644176006315 9.2825864031910879 3.3398444652557364 11.829601794481276 19.729363322257996 8.8451691940426809 15.882087916135786 9.7031161263585108 11.577811621129511 5.0801121592521721 12.454632297158243 5.6963252872228614 7.1461133286356917 7.6344892457127571 5.4534562155604354 9.2842627093195897 26.376846648752689 8.1412158012390119 12.306119874119757 3.3406202644109717 13.879623092710974 14.432680234313009 1.8039963841438282 144.58844073116779 79.068895310163498
leaf_count=2 7 43 1246 54 47 15 71 7 22 34 39 27 50 35 10 22 29 18 40 24 26 43 23 38 10 37 28 12 239 139
internal_value=0.0260757 0.0401031 -0.0459693 0.0143536 0.0315163 0.0256031 0.0230618 -0.0184808 0.0259396 0.0235394 0.019518 0.0235414 0.019336 -0.00669604 0.0248324 0.0122937 -0.0112035 0.0069259 -0.0187929 0.0343779 0.0139155 0.0477487 0.0383724 0.0460394 0.050688 0.0385998 0.0257477 -0.0532209 0.0510296 0.0434998
internal_weight=606.826 507.93 98.8954 10.6127 280.434 205.555 194.835 12.6224 182.212 170.383 146.799 137.954 122.072 21.2809 100.791 52.7494 25.557 19.8607 12.7146 27.1924 14.7377 74.8792 48.5024 40.3611 227.496 48.0417 28.3123 88.2826 226.998 82.4095
internal_count=2437 1118 1319 61 728 577 562 78 484 462 419 380 353 85 268 169 97 68 50 72 50 151 108 85 390 99 65 1258 388 149
is_linear=0
shrinkage=0.05


Tree=24
num_leaves=31
num_cat=0
split_feature=3 0 7 4 1 4 2 3 1 0 3 2 3 1 1 6 7 7 6 5 1 10 5 2 5 9 1 7 0 4
split_gain=226.738 21.6411 16.593 14.611 8.81321 12.8417 11.6146 16.0248 16.7966 14.3571 5.73932 5.70314 5.41883 19.4474 5.40782 4.0788 3.69113 4.64768 7.59313 7.5928 4.73448 4.19906 3.08119 3.06315 2.93029 2.86231 2.72472 2.66447 2.64757 2.46739
threshold=0.02784269995352261 0.45449271852485779 0.1537907732664234 0.01677226871360555 0.0012299302280466375 0.015835571607569963 0.0052380024009647452 0.0061801561262477605 0.0045372194988302118 0.7004948278839499 0.013300859123836902 0.0014715631768574078 0.0027919085554704124 0.0032216601180267809 0.0035454562017227867 668.50000000000011 0.03997596448156096 0.082685677555075096 31.500000000000004 389.50000000000006 0.0053786302483907053 0.030063910952072843 18.500000000000004 0.0053183892594173676 1978.5000000000002 0.88097005425371533 0.00010801101054608524 0.18562740967761324 0.19135793695598532 0.021765389516117745
decision_type=2 2 2 2 2 2 2 2 2 2 2 2 2 2 2 2 2 2 2 2 2 2 2 2 2 2 2 2 2 2
left_child=1 10 3 -2 -3 12 7 8 9 -7 16 -9 -6 -14 -11 -10 26 18 19 -18 28 -19 -8 -5 -4 27 -1 -23 -20 -24
right_child=2 4 24 23 5 6 22 11 15 14 -12 -13 13 -15 -16 -17 17 21 20 -21 -22 25 29 -25 -26 -27 -28 -29 -30 -31
leaf_value=-0.11154350468831725 0.083366688466603112 0.05618508152561074 -0.054325600407542585 -0.060120064115361617 0.067353155979604562 0.020009387893109052 0.069112987007081128 0.010047943669799261 0.025440533581913588 -0.075653808672558137 0.01259362574033546 -0.061795148757635622 -0.032651550557920898 0.042873574796815882 -0.0078906574906775044 0.072147580395565999 0.029894881652656264 0.058021130293208448 0.044601414920617762 -0.034657041343165551 0.069614187655452964 0.038807484004197999 0.001855637806724387 0.016821648749319979 0.0099878308511276888 0.059002482366555781 0.05456755573697343 0.0051260257237337285 0.015664032792421279 0.038502678021385003
leaf_weight=0.24732251465320487 4.3855908587574941 20.48374217748642 82.593921836465597 4.1990010589361191 12.066965132951735 15.329831421375276 5.5672533363103893 3.5372505933046368 9.4937164261937159 8.3027371689677221 11.829827912151812 12.610238969326018 10.145338974893091 53.319067366421223 4.5619952380657187 9.2074793577194196 12.893168762326242 61.798209950327873 21.871253728866577 7.0441983044147483 12.969873964786528 19.045572802424434 6.5807504355907467 1.8694682344794271 1.8099258691072453 10.59811946749687 134.24968662858009 8.4889000952243787 12.377787351608275 15.206277087330816
leaf_count=1 7 34 1246 41 18 40 10 8 28 45 33 102 39 119 21 13 27 101 39 21 19 38 23 13 12 19 227 20 29 44
internal_value=0.0252831 0.0387329 -0.0455868 0.0138334 0.0252426 0.0214227 0.00870805 -0.00309751 0.0116947 -0.0126759 0.0467566 -0.0460573 0.03664 0.0308002 -0.0516241 0.0484366 0.0480967 0.0431339 0.0329615 0.00708763 0.0438863 0.04997 0.0359163 -0.0364172 -0.0529465 0.0369222 0.0542621 0.0284235 0.0341433 0.0274335
internal_weight=594.684 499.827 94.8579 10.4541 186.413 165.929 90.3975 63.0432 46.8958 28.1946 313.414 16.1475 75.5314 63.4644 12.8647 18.7012 301.584 167.087 67.1563 19.9374 47.2189 99.9308 27.3543 6.06847 84.4038 38.1326 134.497 27.5345 34.249 21.787
internal_count=2437 1118 1319 61 544 510 334 257 147 106 574 110 176 158 66 41 541 313 135 48 87 178 77 54 1258 77 228 58 68 67
is_linear=0
shrinkage=0.05


Tree=25
num_leaves=31
num_cat=0
split_feature=3 0 8 7 6 8 3 4 0 9 10 6 10 2 3 10 3 3 1 4 10 2 10 9 10 6 2 7 2 4
split_gain=221.219 24.9507 15.0397 14.0593 11.3861 5.71981 5.54407 5.32144 6.02679 9.21528 7.82273 5.84452 12.7837 8.43287 6.08781 7.32206 4.57887 4.14898 9.61563 4.04506 3.4151 3.34593 3.27205 3.97356 6.42831 7.40392 2.88872 2.73617 2.32428 2.28304
threshold=0.027361734657915911 0.45449271852485779 0.68342209901982487 0.035461504050897173 651.00000000000011 0.015405038577185755 0.0046849960888136772 0.010424884174290258 0.95150332610679877 2.1003774581142682 0.17958965221002501 30.500000000000004 0.097942797566851869 0.004211418363221228 0.0046150515794128131 0.17141135666477406 0.0084681709176938225 0.0078017449450734798 0.0056036791743756705 0.028441177258541419 0.15097685041610831 0.0044749627475478395 0.093714979043622901 0.29467222150321853 0.023070742112832103 43.500000000000007 0.0030814843109991767 0.067834956668456181 0.0029775458958821487 0.020278536135955979
decision_type=2 2 2 2 2 2 2 2 2 2 2 2 2 2 2 2 2 2 2 2 2 2 2 2 2 2 2 2 2 2
left_child=1 17 3 -2 5 20 -6 -7 11 -10 -11 14 16 -14 28 27 -13 22 21 -8 -3 -19 23 29 -25 -26 -27 -16 -9 -1
right_child=2 4 -4 -5 6 7 19 8 9 10 -12 12 13 -15 15 -17 -18 18 -20 -21 -22 -23 -24 24 25 26 -28 -29 -30 -31
leaf_value=0.047841110645207061 0.044913549119646526 -0.064591769550404507 0.047749870520196948 -0.053021011173647339 0.060300469913211335 0.042970051924004958 0.039850919754358644 0.030786034617506137 -0.054935459911937212 -0.016708565344218249 0.059513784731778908 0.0093087057605435401 -0.071030080470310272 0.0025278754761884469 0.0034248442046062887 0.045494331372690773 0.058275700487650552 -0.02342846528972397 0.054285031531172784 -0.0022778661979145497 0.005245666643475558 0.024661541648461422 0.061872015475032162 0.054715802708896089 -0.0068699621296604216 0.067386389098383792 0.027650262832701666 -0.048263328458153676 0.060500621874914777 0.060982680357392627
leaf_weight=121.11694619059563 3.8278767094016066 3.2797530815005294 4.2191249728202811 85.933234646916389 26.22854083776474 19.535488188266754 21.352831035852436 11.516184814274313 7.2593335434794453 8.2058969587087613 5.7073852345347396 9.8710237815976161 6.5751745179295567 9.5634773895144445 6.7268226295709628 8.6071870252490026 9.2458049058914167 7.2672278955578786 19.53405536711216 7.7715798243880263 3.7543478161096573 7.2010412514209747 47.367240935564041 27.029188692569733 13.407395318150519 6.8536524623632458 13.749452590942381 4.1337405443191528 15.356399014592169 45.451245799660683
leaf_count=216 14 27 9 1316 42 41 48 26 46 33 14 27 42 37 21 22 20 26 33 27 23 16 78 45 36 11 29 19 26 74
internal_value=0.0258027 0.0391879 -0.0445081 -0.0488446 0.0246489 0.0165273 0.0436259 0.0190489 0.0145017 -0.00926836 0.0145587 0.0206696 0.00532775 -0.0274409 0.0323415 0.0110495 0.0329915 0.0478785 0.0314018 0.0286092 -0.0273171 0.000506542 0.049916 0.0474278 0.0365145 0.0220494 0.0408685 -0.0162487 0.0477665 0.051427
internal_weight=587.649 493.668 93.9802 89.7611 184.691 129.338 55.353 122.304 102.768 21.1726 13.9133 81.5958 35.2555 16.1387 46.3403 19.4678 19.1168 308.977 34.0023 29.1244 7.0341 14.4683 274.975 227.608 61.0397 34.0105 20.6031 10.8606 26.8726 166.568
internal_count=2444 1105 1339 1330 541 424 117 374 333 93 47 240 126 79 114 62 47 564 75 75 50 42 489 411 121 76 40 40 52 290
is_linear=0
shrinkage=0.05


Tree=26
num_leaves=31
num_cat=0
split_feature=3 0 7 4 6 5 4 6 6 1 10 4 7 3 10 10 2 2 3 10 10 3 1 9 2 6 6 5 7 1
split_gain=204.405 23.7641 14.668 17.0856 10.5941 8.37143 7.7291 8.55765 7.93561 9.62698 8.27758 6.01101 5.97125 5.30799 7.56355 4.98473 6.67762 4.88777 8.99359 4.66653 4.53292 4.2916 4.03338 5.05699 3.59484 3.45793 3.01037 3.82713 5.33397 5.13663
threshold=0.027361734657915911 0.45449271852485779 0.19662637020386334 0.014338110853937071 531.50000000000011 2964.5000000000005 0.029972251341410537 25.500000000000004 29.500000000000004 0.0056454306173232983 0.074795030902325657 0.01123498636809056 0.01491147613885878 0.014594935426539108 0.089200160272423487 0.063806194192140411 0.0048780255239107397 0.0062459708267377095 0.0050163880252672615 0.189220354825718 0.26397925265809724 0.013300859123836902 0.0037543585646001806 2.7810409883590124 0.0060015639992025893 1872.0000000000002 565.50000000000011 667.50000000000011 0.12538032454361056 0.0068502073426216711
decision_type=2 2 2 2 2 2 2 2 2 2 2 2 2 2 2 2 2 2 2 2 2 2 2 2 2 2 2 2 2 2
left_child=1 21 3 -2 5 6 8 -8 12 10 -10 -12 -3 22 -15 16 -14 18 -9 -17 -21 26 23 -6 -5 -4 27 28 29 -1
right_child=2 4 25 24 13 -7 7 17 9 -11 11 -13 15 14 -16 19 -18 -19 -20 20 -22 -23 -24 -25 -26 -27 -28 -29 -30 -31
leaf_value=0.030187334816321906 0.072314827664321166 -0.017184058969484949 -0.053933199834945482 -0.06005277033438107 0.050937425021784381 0.060226043970008317 -0.070971398652530354 0.037927554137350147 0.015503780618174659 0.043409771264785367 0.011550468210627891 -0.067708784350563808 -0.022789727708150673 0.044388581237821169 -0.032911140967690711 0.058338740020129481 0.037478602505114179 0.048537903353023645 -0.064503775304271802 -0.0046349857484104095 0.046527148548058332 0.016022584530094457 0.059048569859945034 -0.002095375896870645 0.021311096092711024 0.026795598155575279 0.056309605560208767 0.055243445122928482 0.053654984537202757 0.066243346784404772
leaf_weight=93.433305040001869 5.4546809270977965 6.8741403073072425 75.459154415875673 6.2702916674315912 11.155952349305155 9.4297485351562482 5.4645532369613674 3.9531623944640142 8.7660923153162056 7.6736201345920554 3.2004084289073935 9.4719389975070936 8.2144480571150797 7.5414192974567396 5.452523298561573 20.964785471558571 10.433814190328119 4.1302136778831473 4.6796936616301537 7.9148465916514423 9.5567884892225248 11.156767472624777 30.610933795571327 7.5287407785654059 1.7326898202300069 1.3502093702554692 74.288729354739189 61.228890925645828 51.542638897895813 11.045614942908285
leaf_count=193 9 20 1242 66 20 15 35 11 27 19 12 66 30 18 28 39 24 9 40 27 28 30 52 21 13 9 129 105 90 17
internal_value=0.025016 0.0378566 -0.0440775 0.00407437 0.0236334 0.0149926 0.0111602 -0.0186135 0.0169912 -0.00464926 -0.0218514 -0.0476918 0.0268413 0.040381 0.011952 0.0321428 0.0109308 0.00380377 -0.0175984 0.0424343 0.0233501 0.0464563 0.0478747 0.0295686 -0.042437 -0.0525141 0.047621 0.0446499 0.0404926 0.0339992
internal_weight=575.981 485.714 90.267 13.4577 183.018 120.728 111.299 18.2276 93.0709 29.1121 21.4384 12.6723 63.9588 62.2896 12.9939 57.0847 18.6483 12.7631 8.63286 38.4364 17.4716 302.696 49.2956 18.6847 8.00298 76.8094 291.539 217.25 156.022 104.479
internal_count=2444 1105 1339 88 541 402 387 95 292 124 105 78 168 139 46 148 54 60 51 94 55 564 93 41 79 1251 534 405 300 210
is_linear=0
shrinkage=0.05


Tree=27
num_leaves=31
num_cat=0
split_feature=3 0 7 6 9 5 3 3 1 8 8 2 6 2 5 2 0 3 8 9 8 0 1 6 5 7 8 2 1 9
split_gain=189.097 22.4887 14.1108 9.86718 9.69615 7.5445 5.32955 5.22653 14.6617 16.5612 7.84264 6.79129 6.44128 5.44208 4.50879 7.44877 6.47815 4.13275 3.93532 3.8082 3.40166 3.38398 4.29715 3.04802 3.81498 5.1711 6.17127 5.52679 5.09013 4.83397
threshold=0.027361734657915911 0.45449271852485779 0.19662637020386334 651.00000000000011 1.4795913703613743 2964.5000000000005 0.0046849960888136772 0.0051836199748584401 0.0055698821575900217 0.31184838380108298 0.12726542840441835 0.0037300261703880192 27.500000000000004 0.004211418363221228 870.00000000000011 0.0050322309737822011 0.98732660884401557 0.013300859123836902 0.5742784519284253 3.0498023677626391 0.75887098332396463 0.68342303260572124 0.0081358330674593717 565.50000000000011 667.50000000000011 0.097974566711106562 0.1661059569236599 0.0055593043889406975 0.0021004144656373526 0.29467222150321853
decision_type=2 2 2 2 2 2 2 2 2 2 2 2 2 2 2 2 2 2 2 2 2 2 2 2 2 2 2 2 2 2
left_child=1 17 4 5 -2 7 -5 10 9 -9 12 19 -3 -14 15 16 -8 23 -6 -12 -4 -10 -23 24 25 26 27 29 -26 -1
right_child=2 3 20 6 18 -7 14 8 21 -11 11 -13 13 -15 -16 -17 -18 -19 -20 -21 -22 22 -24 -25 28 -27 -28 -29 -30 -31
leaf_value=0.027666657122382744 0.054099964407318103 0.049013980876965693 -0.053662102351546927 0.057444621298219437 -0.055511749705208557 0.058758261565387139 -0.055920790509232043 -0.056047625748554014 0.040782653484444341 0.036649218522252322 0.030838160211609445 -0.045888764911408121 -0.031573708852841609 0.03555586503679932 0.060303832597437358 0.042397334266655207 0.023926162795012564 0.015220113327692519 0.024080975839973644 -0.012669015348954711 0.031359311836848723 -0.021206858029698322 0.035210323805068937 0.055122802275984741 0.0083212428726078501 0.049250926421651686 0.057707162282231432 0.05110534642119971 0.058653249610417284 -0.003918964988415396
leaf_weight=34.309850171208382 5.5628763735294324 26.912438452243805 72.193500325083733 25.170165494084358 5.4321978203952312 9.1881980895996076 5.159901395440107 16.736714933067564 14.642897233366968 6.7663675993680945 12.892618179321294 6.1351117566227904 5.5111930072307569 6.6766383871436119 7.1425765901803961 11.287214785814284 5.0034528374671936 11.157721772789953 2.1747450083494186 8.2469384595751745 1.1959400326013554 6.9763653650879842 6.5385699719190598 72.148342177271843 5.5379819720983496 68.850204214453697 17.039442598819733 14.762446939945219 54.039004996418953 18.724061489105225
leaf_count=70 12 54 1248 42 71 15 28 134 32 15 29 24 25 18 12 23 12 30 5 31 3 30 17 129 13 126 29 26 92 49
internal_value=0.0242714 0.036596 -0.0437247 0.0227068 0.003931 0.0151175 0.0406659 0.0117204 -0.000205503 -0.0293609 0.0210025 0.000424252 0.0353571 0.00520067 0.0258957 0.0144386 -0.0166119 0.0450722 -0.032757 0.0138652 -0.0522766 0.0241302 0.00608796 0.0462392 0.0432339 0.0390701 0.0308077 0.024047 0.0539746 0.0165151
internal_weight=564.116 477.556 86.5593 180.987 13.1698 127.224 53.7633 118.036 51.6609 23.5031 66.3749 27.2747 39.1003 12.1878 28.5931 21.4506 10.1634 296.569 7.60694 21.1396 73.3894 28.1578 13.5149 285.411 213.263 153.686 84.8358 67.7964 59.577 53.0339
internal_count=2444 1105 1339 541 88 424 117 409 228 149 181 84 97 43 75 63 40 564 76 60 1251 79 47 534 405 300 174 145 105 119
is_linear=0
shrinkage=0.05


end of trees

feature_importances:
f_slope_diff=99
f_joint_residual=98
f_residual_a=96
f_size_ratio=83
f_aspect_diff=77
f_size_a=76
f_size_b=74
f_normal_angle=67
f_offset_diff=61
f_boundary_distance=60
f_residual_b=49

parameters:
[boosting: gbdt]
[objective: binary]
[metric: binary_logloss,auc,average_precision]
[tree_learner: serial]
[device_type: cpu]
[data_sample_strategy: bagging]
[data: ]
[valid: ]
[num_iterations: 500]
[learning_rate: 0.05]
[num_leaves: 31]
[num_threads: 0]
[seed: 42]
[deterministic: 0]
[force_col_wise: 0]
[force_row_wise: 0]
[histogram_pool_size: -1]
[max_depth: -1]
[min_data_in_leaf: 20]
[min_sum_hessian_in_leaf: 0.001]
[bagging_fraction: 0.9]
[pos_bagging_fraction: 1]
[neg_bagging_fraction: 1]
[bagging_freq: 5]
[bagging_seed: 400]
[bagging_by_query: 0]
[feature_fraction: 0.9]
[feature_fraction_bynode: 1]
[feature_fraction_seed: 30056]
[extra_trees: 0]
[extra_seed: 12879]
[early_stopping_round: 0]
[early_stopping_min_delta: 0]
[first_metric_only: 0]
[max_delta_step: 0]
[lambda_l1: 0]
[lambda_l2: 0]
[linear_lambda: 0]
[min_gain_to_split: 0]
[drop_rate: 0.1]
[max_drop: 50]
[skip_drop: 0.5]
[xgboost_dart_mode: 0]
[uniform_drop: 0]
[drop_seed: 17869]
[top_rate: 0.2]
[other_rate: 0.1]
[min_data_per_group: 100]
[max_cat_threshold: 32]
[cat_l2: 10]
[cat_smooth: 10]
[max_cat_to_onehot: 4]
[top_k: 20]
[monotone_constraints: ]
[monotone_constraints_method: basic]
[monotone_penalty: 0]
[feature_contri: ]
[forcedsplits_filename: ]
[refit_decay_rate: 0.9]
[cegb_tradeoff: 1]
[cegb_penalty_split: 0]
[cegb_penalty_feature_lazy: ]
[cegb_penalty_feature_coupled: ]
[path_smooth: 0]
[interaction_constraints: ]
[verbosity: -1]
[saved_feature_importance_type: 0]
[use_quantized_grad: 0]
[num_grad_quant_bins: 4]
[quant_train_renew_leaf: 0]
[stochastic_rounding: 1]
[linear_tree: 0]
[max_bin: 255]
[max_bin_by_feature: ]
[min_data_in_bin: 3]
[bin_construct_sample_cnt: 200000]
[data_random_seed: 175]
[is_enable_sparse: 1]
[enable_bundle: 1]
[use_missing: 1]
[zero_as_missing: 0]
[feature_pre_filter: 1]
[pre_partition: 0]
[two_round: 0]
[header: 0]
[label_column: ]
[weight_column: ]
[group_column: ]
[ignore_column: ]
[categorical_feature: ]
[forcedbins_filename: ]
[precise_float_parser: 0]
[parser_config_file: ]
[objective_seed: 16083]
[num_class: 1]
[is_unbalance: 1]
[scale_pos_weight: 1]
[sigmoid: 1]
[boost_from_average: 1]
[reg_sqrt: 0]
[alpha: 0.9]
[fair_c: 1]
[poisson_max_delta_step: 0.7]
[tweedie_variance_power: 1.5]
[lambdarank_truncation_level: 30]
[lambdarank_norm: 1]
[label_gain: ]
[lambdarank_position_bias_regularization: 0]
[eval_at: ]
[multi_error_top_k: 1]
[auc_mu_weights: ]
[num_machines: 1]
[local_listen_port: 12400]
[time_out: 120]
[machine_list_filename: ]
[machines: ]
[gpu_platform_id: -1]
[gpu_device_id: -1]
[gpu_use_dp: 0]
[num_gpu: 1]

end of parameters

pandas_categorical:null
